digraph Tree {
node [shape=box, style="filled, rounded", color="black", fontname=helvetica] ;
edge [fontname=helvetica] ;
0 [label="ttlfull_245_delta <= 0.709\ngini = 0.5\nsamples = 100.0%\nvalue = [0.5, 0.5]\nclass = unique", fillcolor="#ffffff"] ;
1 [label="musicid_delta <= 0.359\ngini = 0.028\nsamples = 97.0%\nvalue = [0.986, 0.014]\nclass = unique", fillcolor="#e5833c"] ;
0 -> 1 [labeldistance=2.5, labelangle=45, headlabel="True"] ;
2 [label="corporate_full_delta <= 0.356\ngini = 0.015\nsamples = 96.9%\nvalue = [0.993, 0.007]\nclass = unique", fillcolor="#e5823a"] ;
1 -> 2 ;
3 [label="person_245c_delta <= 0.821\ngini = 0.005\nsamples = 96.9%\nvalue = [0.998, 0.002]\nclass = unique", fillcolor="#e58139"] ;
2 -> 3 ;
4 [label="ttlfull_245_delta <= 0.703\ngini = 0.001\nsamples = 96.9%\nvalue = [0.999, 0.001]\nclass = unique", fillcolor="#e58139"] ;
3 -> 4 ;
5 [label="gini = 0.0\nsamples = 96.8%\nvalue = [1.0, 0.0]\nclass = unique", fillcolor="#e58139"] ;
4 -> 5 ;
6 [label="ttlfull_245_delta <= 0.703\ngini = 0.424\nsamples = 0.1%\nvalue = [0.695, 0.305]\nclass = unique", fillcolor="#f0b890"] ;
4 -> 6 ;
7 [label="gini = 0.0\nsamples = 0.0%\nvalue = [0.0, 1.0]\nclass = duplicate", fillcolor="#399de5"] ;
6 -> 7 ;
8 [label="gini = 0.0\nsamples = 0.1%\nvalue = [1.0, 0.0]\nclass = unique", fillcolor="#e58139"] ;
6 -> 8 ;
9 [label="gini = -0.0\nsamples = 0.0%\nvalue = [0.0, 1.0]\nclass = duplicate", fillcolor="#399de5"] ;
3 -> 9 ;
10 [label="format_postfix_delta <= 0.714\ngini = 0.061\nsamples = 0.0%\nvalue = [0.031, 0.969]\nclass = duplicate", fillcolor="#3fa0e6"] ;
2 -> 10 ;
11 [label="gini = 0.0\nsamples = 0.0%\nvalue = [1.0, 0.0]\nclass = unique", fillcolor="#e58139"] ;
10 -> 11 ;
12 [label="person_245c_delta <= 0.91\ngini = 0.011\nsamples = 0.0%\nvalue = [0.005, 0.995]\nclass = duplicate", fillcolor="#3a9ee5"] ;
10 -> 12 ;
13 [label="isbn_delta <= 0.5\ngini = 0.005\nsamples = 0.0%\nvalue = [0.003, 0.997]\nclass = duplicate", fillcolor="#3a9de5"] ;
12 -> 13 ;
14 [label="gini = 0.0\nsamples = 0.0%\nvalue = [1.0, 0.0]\nclass = unique", fillcolor="#e58139"] ;
13 -> 14 ;
15 [label="gini = 0.0\nsamples = 0.0%\nvalue = [0.0, 1.0]\nclass = duplicate", fillcolor="#399de5"] ;
13 -> 15 ;
16 [label="gini = -0.0\nsamples = 0.0%\nvalue = [1.0, 0.0]\nclass = unique", fillcolor="#e58139"] ;
12 -> 16 ;
17 [label="exactDate_delta <= 0.688\ngini = 0.101\nsamples = 0.1%\nvalue = [0.054, 0.946]\nclass = duplicate", fillcolor="#44a3e6"] ;
1 -> 17 ;
18 [label="gini = 0.0\nsamples = 0.0%\nvalue = [1.0, 0.0]\nclass = unique", fillcolor="#e58139"] ;
17 -> 18 ;
19 [label="volumes_delta <= 0.375\ngini = 0.012\nsamples = 0.0%\nvalue = [0.006, 0.994]\nclass = duplicate", fillcolor="#3a9ee5"] ;
17 -> 19 ;
20 [label="gini = 0.0\nsamples = 0.0%\nvalue = [1.0, 0.0]\nclass = unique", fillcolor="#e58139"] ;
19 -> 20 ;
21 [label="gini = 0.0\nsamples = 0.0%\nvalue = [0.0, 1.0]\nclass = duplicate", fillcolor="#399de5"] ;
19 -> 21 ;
22 [label="format_prefix_delta <= 0.5\ngini = 0.014\nsamples = 3.0%\nvalue = [0.007, 0.993]\nclass = duplicate", fillcolor="#3a9ee5"] ;
0 -> 22 [labeldistance=2.5, labelangle=-45, headlabel="False"] ;
23 [label="gini = 0.0\nsamples = 0.2%\nvalue = [1.0, 0.0]\nclass = unique", fillcolor="#e58139"] ;
22 -> 23 ;
24 [label="format_postfix_delta <= 0.339\ngini = 0.01\nsamples = 2.8%\nvalue = [0.005, 0.995]\nclass = duplicate", fillcolor="#3a9de5"] ;
22 -> 24 ;
25 [label="gini = 0.0\nsamples = 0.0%\nvalue = [1.0, 0.0]\nclass = unique", fillcolor="#e58139"] ;
24 -> 25 ;
26 [label="exactDate_delta <= 0.438\ngini = 0.009\nsamples = 2.8%\nvalue = [0.005, 0.995]\nclass = duplicate", fillcolor="#3a9de5"] ;
24 -> 26 ;
27 [label="gini = 0.0\nsamples = 0.0%\nvalue = [1.0, 0.0]\nclass = unique", fillcolor="#e58139"] ;
26 -> 27 ;
28 [label="exactDate_delta <= 0.688\ngini = 0.009\nsamples = 2.8%\nvalue = [0.005, 0.995]\nclass = duplicate", fillcolor="#3a9de5"] ;
26 -> 28 ;
29 [label="part_delta <= -0.75\ngini = 0.087\nsamples = 0.4%\nvalue = [0.046, 0.954]\nclass = duplicate", fillcolor="#42a2e6"] ;
28 -> 29 ;
30 [label="ttlfull_245_delta <= 0.735\ngini = 0.059\nsamples = 0.3%\nvalue = [0.03, 0.97]\nclass = duplicate", fillcolor="#3fa0e6"] ;
29 -> 30 ;
31 [label="gini = 0.0\nsamples = 0.0%\nvalue = [1.0, 0.0]\nclass = unique", fillcolor="#e58139"] ;
30 -> 31 ;
32 [label="exactDate_delta <= 0.562\ngini = 0.053\nsamples = 0.3%\nvalue = [0.027, 0.973]\nclass = duplicate", fillcolor="#3fa0e6"] ;
30 -> 32 ;
33 [label="doi_delta <= -0.75\ngini = 0.037\nsamples = 0.2%\nvalue = [0.019, 0.981]\nclass = duplicate", fillcolor="#3d9fe5"] ;
32 -> 33 ;
34 [label="musicid_delta <= 0.279\ngini = 0.035\nsamples = 0.2%\nvalue = [0.018, 0.982]\nclass = duplicate", fillcolor="#3d9fe5"] ;
33 -> 34 ;
35 [label="ttlfull_245_delta <= 0.937\ngini = 0.034\nsamples = 0.2%\nvalue = [0.017, 0.983]\nclass = duplicate", fillcolor="#3c9fe5"] ;
34 -> 35 ;
36 [label="person_700_delta <= 0.84\ngini = 0.108\nsamples = 0.1%\nvalue = [0.057, 0.943]\nclass = duplicate", fillcolor="#45a3e7"] ;
35 -> 36 ;
37 [label="ttlfull_245_delta <= 0.931\ngini = 0.088\nsamples = 0.1%\nvalue = [0.046, 0.954]\nclass = duplicate", fillcolor="#43a2e6"] ;
36 -> 37 ;
38 [label="pubinit_delta <= 0.469\ngini = 0.078\nsamples = 0.1%\nvalue = [0.041, 0.959]\nclass = duplicate", fillcolor="#41a1e6"] ;
37 -> 38 ;
39 [label="corporate_full_delta <= -0.75\ngini = 0.076\nsamples = 0.1%\nvalue = [0.039, 0.961]\nclass = duplicate", fillcolor="#41a1e6"] ;
38 -> 39 ;
40 [label="isbn_delta <= 0.5\ngini = 0.03\nsamples = 0.0%\nvalue = [0.015, 0.985]\nclass = duplicate", fillcolor="#3c9fe5"] ;
39 -> 40 ;
41 [label="gini = 0.0\nsamples = 0.0%\nvalue = [1.0, 0.0]\nclass = unique", fillcolor="#e58139"] ;
40 -> 41 ;
42 [label="ttlfull_245_delta <= 0.777\ngini = 0.017\nsamples = 0.0%\nvalue = [0.009, 0.991]\nclass = duplicate", fillcolor="#3b9ee5"] ;
40 -> 42 ;
43 [label="ttlfull_245_delta <= 0.768\ngini = 0.126\nsamples = 0.0%\nvalue = [0.068, 0.932]\nclass = duplicate", fillcolor="#47a4e7"] ;
42 -> 43 ;
44 [label="gini = 0.0\nsamples = 0.0%\nvalue = [0.0, 1.0]\nclass = duplicate", fillcolor="#399de5"] ;
43 -> 44 ;
45 [label="gini = -0.0\nsamples = 0.0%\nvalue = [1.0, 0.0]\nclass = unique", fillcolor="#e58139"] ;
43 -> 45 ;
46 [label="ttlfull_246_delta <= -0.75\ngini = 0.005\nsamples = 0.0%\nvalue = [0.002, 0.998]\nclass = duplicate", fillcolor="#399de5"] ;
42 -> 46 ;
47 [label="gini = 0.0\nsamples = 0.0%\nvalue = [1.0, 0.0]\nclass = unique", fillcolor="#e58139"] ;
46 -> 47 ;
48 [label="gini = 0.0\nsamples = 0.0%\nvalue = [0.0, 1.0]\nclass = duplicate", fillcolor="#399de5"] ;
46 -> 48 ;
49 [label="ttlfull_246_delta <= -0.75\ngini = 0.161\nsamples = 0.0%\nvalue = [0.088, 0.912]\nclass = duplicate", fillcolor="#4ca7e8"] ;
39 -> 49 ;
50 [label="pubinit_delta <= -0.75\ngini = 0.046\nsamples = 0.0%\nvalue = [0.024, 0.976]\nclass = duplicate", fillcolor="#3e9fe6"] ;
49 -> 50 ;
51 [label="gini = 0.0\nsamples = 0.0%\nvalue = [1.0, 0.0]\nclass = unique", fillcolor="#e58139"] ;
50 -> 51 ;
52 [label="ttlfull_245_delta <= 0.897\ngini = 0.028\nsamples = 0.0%\nvalue = [0.014, 0.986]\nclass = duplicate", fillcolor="#3c9ee5"] ;
50 -> 52 ;
53 [label="person_245c_delta <= 0.019\ngini = 0.01\nsamples = 0.0%\nvalue = [0.005, 0.995]\nclass = duplicate", fillcolor="#3a9de5"] ;
52 -> 53 ;
54 [label="gini = 0.0\nsamples = 0.0%\nvalue = [0.0, 1.0]\nclass = duplicate", fillcolor="#399de5"] ;
53 -> 54 ;
55 [label="corporate_full_delta <= 0.527\ngini = 0.024\nsamples = 0.0%\nvalue = [0.012, 0.988]\nclass = duplicate", fillcolor="#3b9ee5"] ;
53 -> 55 ;
56 [label="gini = 0.0\nsamples = 0.0%\nvalue = [1.0, 0.0]\nclass = unique", fillcolor="#e58139"] ;
55 -> 56 ;
57 [label="gini = 0.0\nsamples = 0.0%\nvalue = [0.0, 1.0]\nclass = duplicate", fillcolor="#399de5"] ;
55 -> 57 ;
58 [label="gini = 0.0\nsamples = 0.0%\nvalue = [1.0, 0.0]\nclass = unique", fillcolor="#e58139"] ;
52 -> 58 ;
59 [label="gini = -0.0\nsamples = 0.0%\nvalue = [1.0, 0.0]\nclass = unique", fillcolor="#e58139"] ;
49 -> 59 ;
60 [label="gini = 0.0\nsamples = 0.0%\nvalue = [1.0, 0.0]\nclass = unique", fillcolor="#e58139"] ;
38 -> 60 ;
61 [label="gini = 0.0\nsamples = 0.0%\nvalue = [1.0, 0.0]\nclass = unique", fillcolor="#e58139"] ;
37 -> 61 ;
62 [label="gini = 0.0\nsamples = 0.0%\nvalue = [1.0, 0.0]\nclass = unique", fillcolor="#e58139"] ;
36 -> 62 ;
63 [label="person_100_delta <= 0.005\ngini = 0.015\nsamples = 0.1%\nvalue = [0.008, 0.992]\nclass = duplicate", fillcolor="#3b9ee5"] ;
35 -> 63 ;
64 [label="person_100_delta <= -0.75\ngini = 0.012\nsamples = 0.1%\nvalue = [0.006, 0.994]\nclass = duplicate", fillcolor="#3a9ee5"] ;
63 -> 64 ;
65 [label="musicid_delta <= -0.75\ngini = 0.007\nsamples = 0.1%\nvalue = [0.004, 0.996]\nclass = duplicate", fillcolor="#3a9de5"] ;
64 -> 65 ;
66 [label="corporate_full_delta <= -0.196\ngini = 0.006\nsamples = 0.1%\nvalue = [0.003, 0.997]\nclass = duplicate", fillcolor="#3a9de5"] ;
65 -> 66 ;
67 [label="gini = -0.0\nsamples = 0.1%\nvalue = [0.0, 1.0]\nclass = duplicate", fillcolor="#399de5"] ;
66 -> 67 ;
68 [label="corporate_full_delta <= 0.726\ngini = 0.027\nsamples = 0.0%\nvalue = [0.014, 0.986]\nclass = duplicate", fillcolor="#3c9ee5"] ;
66 -> 68 ;
69 [label="gini = 0.0\nsamples = 0.0%\nvalue = [1.0, 0.0]\nclass = unique", fillcolor="#e58139"] ;
68 -> 69 ;
70 [label="person_245c_delta <= 0.924\ngini = 0.014\nsamples = 0.0%\nvalue = [0.007, 0.993]\nclass = duplicate", fillcolor="#3a9ee5"] ;
68 -> 70 ;
71 [label="person_245c_delta <= 0.783\ngini = 0.046\nsamples = 0.0%\nvalue = [0.024, 0.976]\nclass = duplicate", fillcolor="#3e9fe6"] ;
70 -> 71 ;
72 [label="gini = 0.0\nsamples = 0.0%\nvalue = [0.0, 1.0]\nclass = duplicate", fillcolor="#399de5"] ;
71 -> 72 ;
73 [label="gini = -0.0\nsamples = 0.0%\nvalue = [1.0, 0.0]\nclass = unique", fillcolor="#e58139"] ;
71 -> 73 ;
74 [label="gini = 0.0\nsamples = 0.0%\nvalue = [0.0, 1.0]\nclass = duplicate", fillcolor="#399de5"] ;
70 -> 74 ;
75 [label="gini = 0.0\nsamples = 0.0%\nvalue = [1.0, 0.0]\nclass = unique", fillcolor="#e58139"] ;
65 -> 75 ;
76 [label="musicid_delta <= -0.75\ngini = 0.248\nsamples = 0.0%\nvalue = [0.145, 0.855]\nclass = duplicate", fillcolor="#5baee9"] ;
64 -> 76 ;
77 [label="gini = -0.0\nsamples = 0.0%\nvalue = [1.0, 0.0]\nclass = unique", fillcolor="#e58139"] ;
76 -> 77 ;
78 [label="gini = 0.0\nsamples = 0.0%\nvalue = [0.0, 1.0]\nclass = duplicate", fillcolor="#399de5"] ;
76 -> 78 ;
79 [label="gini = 0.0\nsamples = 0.0%\nvalue = [1.0, 0.0]\nclass = unique", fillcolor="#e58139"] ;
63 -> 79 ;
80 [label="gini = 0.0\nsamples = 0.0%\nvalue = [1.0, 0.0]\nclass = unique", fillcolor="#e58139"] ;
34 -> 80 ;
81 [label="gini = 0.0\nsamples = 0.0%\nvalue = [1.0, 0.0]\nclass = unique", fillcolor="#e58139"] ;
33 -> 81 ;
82 [label="corporate_full_delta <= 0.828\ngini = 0.408\nsamples = 0.0%\nvalue = [0.286, 0.714]\nclass = duplicate", fillcolor="#88c4ef"] ;
32 -> 82 ;
83 [label="gini = 0.0\nsamples = 0.0%\nvalue = [1.0, 0.0]\nclass = unique", fillcolor="#e58139"] ;
82 -> 83 ;
84 [label="gini = -0.0\nsamples = 0.0%\nvalue = [0.0, 1.0]\nclass = duplicate", fillcolor="#399de5"] ;
82 -> 84 ;
85 [label="musicid_delta <= 0.778\ngini = 0.481\nsamples = 0.1%\nvalue = [0.597, 0.403]\nclass = unique", fillcolor="#f7d6bf"] ;
29 -> 85 ;
86 [label="gini = 0.0\nsamples = 0.1%\nvalue = [1.0, 0.0]\nclass = unique", fillcolor="#e58139"] ;
85 -> 86 ;
87 [label="gini = 0.0\nsamples = 0.0%\nvalue = [0.0, 1.0]\nclass = duplicate", fillcolor="#399de5"] ;
85 -> 87 ;
88 [label="volumes_delta <= 0.911\ngini = 0.004\nsamples = 2.4%\nvalue = [0.002, 0.998]\nclass = duplicate", fillcolor="#399de5"] ;
28 -> 88 ;
89 [label="musicid_delta <= -0.75\ngini = 0.013\nsamples = 0.8%\nvalue = [0.007, 0.993]\nclass = duplicate", fillcolor="#3a9ee5"] ;
88 -> 89 ;
90 [label="ttlfull_245_delta <= 0.711\ngini = 0.006\nsamples = 0.6%\nvalue = [0.003, 0.997]\nclass = duplicate", fillcolor="#3a9de5"] ;
89 -> 90 ;
91 [label="gini = 0.0\nsamples = 0.0%\nvalue = [1.0, 0.0]\nclass = unique", fillcolor="#e58139"] ;
90 -> 91 ;
92 [label="exactDate_delta <= 0.906\ngini = 0.006\nsamples = 0.6%\nvalue = [0.003, 0.997]\nclass = duplicate", fillcolor="#3a9de5"] ;
90 -> 92 ;
93 [label="part_delta <= 0.748\ngini = 0.011\nsamples = 0.4%\nvalue = [0.005, 0.995]\nclass = duplicate", fillcolor="#3a9ee5"] ;
92 -> 93 ;
94 [label="part_delta <= 0.742\ngini = 0.02\nsamples = 0.2%\nvalue = [0.01, 0.99]\nclass = duplicate", fillcolor="#3b9ee5"] ;
93 -> 94 ;
95 [label="ttlfull_245_delta <= 0.837\ngini = 0.02\nsamples = 0.2%\nvalue = [0.01, 0.99]\nclass = duplicate", fillcolor="#3b9ee5"] ;
94 -> 95 ;
96 [label="ttlfull_245_delta <= 0.772\ngini = 0.088\nsamples = 0.0%\nvalue = [0.046, 0.954]\nclass = duplicate", fillcolor="#43a2e6"] ;
95 -> 96 ;
97 [label="pubinit_delta <= 0.002\ngini = 0.008\nsamples = 0.0%\nvalue = [0.004, 0.996]\nclass = duplicate", fillcolor="#3a9de5"] ;
96 -> 97 ;
98 [label="gini = 0.0\nsamples = 0.0%\nvalue = [0.0, 1.0]\nclass = duplicate", fillcolor="#399de5"] ;
97 -> 98 ;
99 [label="gini = -0.0\nsamples = 0.0%\nvalue = [1.0, 0.0]\nclass = unique", fillcolor="#e58139"] ;
97 -> 99 ;
100 [label="gini = 0.0\nsamples = 0.0%\nvalue = [1.0, 0.0]\nclass = unique", fillcolor="#e58139"] ;
96 -> 100 ;
101 [label="doi_delta <= -0.75\ngini = 0.015\nsamples = 0.2%\nvalue = [0.008, 0.992]\nclass = duplicate", fillcolor="#3b9ee5"] ;
95 -> 101 ;
102 [label="person_245c_delta <= 0.759\ngini = 0.012\nsamples = 0.2%\nvalue = [0.006, 0.994]\nclass = duplicate", fillcolor="#3a9ee5"] ;
101 -> 102 ;
103 [label="person_245c_delta <= 0.751\ngini = 0.024\nsamples = 0.1%\nvalue = [0.012, 0.988]\nclass = duplicate", fillcolor="#3b9ee5"] ;
102 -> 103 ;
104 [label="isbn_delta <= 0.25\ngini = 0.02\nsamples = 0.1%\nvalue = [0.01, 0.99]\nclass = duplicate", fillcolor="#3b9ee5"] ;
103 -> 104 ;
105 [label="gini = 0.0\nsamples = 0.0%\nvalue = [1.0, 0.0]\nclass = unique", fillcolor="#e58139"] ;
104 -> 105 ;
106 [label="scale_delta <= 0.917\ngini = 0.017\nsamples = 0.1%\nvalue = [0.009, 0.991]\nclass = duplicate", fillcolor="#3b9ee5"] ;
104 -> 106 ;
107 [label="part_delta <= 0.117\ngini = 0.015\nsamples = 0.1%\nvalue = [0.008, 0.992]\nclass = duplicate", fillcolor="#3b9ee5"] ;
106 -> 107 ;
108 [label="volumes_delta <= 0.85\ngini = 0.014\nsamples = 0.1%\nvalue = [0.007, 0.993]\nclass = duplicate", fillcolor="#3a9ee5"] ;
107 -> 108 ;
109 [label="ttlfull_245_delta <= 0.878\ngini = 0.012\nsamples = 0.1%\nvalue = [0.006, 0.994]\nclass = duplicate", fillcolor="#3a9ee5"] ;
108 -> 109 ;
110 [label="ttlfull_245_delta <= 0.851\ngini = 0.088\nsamples = 0.0%\nvalue = [0.046, 0.954]\nclass = duplicate", fillcolor="#43a2e6"] ;
109 -> 110 ;
111 [label="gini = 0.0\nsamples = 0.0%\nvalue = [0.0, 1.0]\nclass = duplicate", fillcolor="#399de5"] ;
110 -> 111 ;
112 [label="gini = -0.0\nsamples = 0.0%\nvalue = [1.0, 0.0]\nclass = unique", fillcolor="#e58139"] ;
110 -> 112 ;
113 [label="format_postfix_delta <= 0.714\ngini = 0.01\nsamples = 0.0%\nvalue = [0.005, 0.995]\nclass = duplicate", fillcolor="#3a9de5"] ;
109 -> 113 ;
114 [label="ttlfull_245_delta <= 0.995\ngini = 0.035\nsamples = 0.0%\nvalue = [0.018, 0.982]\nclass = duplicate", fillcolor="#3d9fe5"] ;
113 -> 114 ;
115 [label="gini = 0.0\nsamples = 0.0%\nvalue = [0.0, 1.0]\nclass = duplicate", fillcolor="#399de5"] ;
114 -> 115 ;
116 [label="gini = -0.0\nsamples = 0.0%\nvalue = [1.0, 0.0]\nclass = unique", fillcolor="#e58139"] ;
114 -> 116 ;
117 [label="person_245c_delta <= 0.654\ngini = 0.006\nsamples = 0.0%\nvalue = [0.003, 0.997]\nclass = duplicate", fillcolor="#3a9de5"] ;
113 -> 117 ;
118 [label="ttlfull_245_delta <= 0.977\ngini = 0.002\nsamples = 0.0%\nvalue = [0.001, 0.999]\nclass = duplicate", fillcolor="#399de5"] ;
117 -> 118 ;
119 [label="gini = 0.0\nsamples = 0.0%\nvalue = [1.0, 0.0]\nclass = unique", fillcolor="#e58139"] ;
118 -> 119 ;
120 [label="gini = 0.0\nsamples = 0.0%\nvalue = [0.0, 1.0]\nclass = duplicate", fillcolor="#399de5"] ;
118 -> 120 ;
121 [label="person_245c_delta <= 0.689\ngini = 0.031\nsamples = 0.0%\nvalue = [0.016, 0.984]\nclass = duplicate", fillcolor="#3c9fe5"] ;
117 -> 121 ;
122 [label="gini = 0.0\nsamples = 0.0%\nvalue = [1.0, 0.0]\nclass = unique", fillcolor="#e58139"] ;
121 -> 122 ;
123 [label="gini = 0.0\nsamples = 0.0%\nvalue = [0.0, 1.0]\nclass = duplicate", fillcolor="#399de5"] ;
121 -> 123 ;
124 [label="gini = 0.0\nsamples = 0.0%\nvalue = [1.0, 0.0]\nclass = unique", fillcolor="#e58139"] ;
108 -> 124 ;
125 [label="gini = 0.0\nsamples = 0.0%\nvalue = [1.0, 0.0]\nclass = unique", fillcolor="#e58139"] ;
107 -> 125 ;
126 [label="gini = 0.0\nsamples = 0.0%\nvalue = [1.0, 0.0]\nclass = unique", fillcolor="#e58139"] ;
106 -> 126 ;
127 [label="gini = 0.0\nsamples = 0.0%\nvalue = [1.0, 0.0]\nclass = unique", fillcolor="#e58139"] ;
103 -> 127 ;
128 [label="format_postfix_delta <= 0.714\ngini = 0.006\nsamples = 0.1%\nvalue = [0.003, 0.997]\nclass = duplicate", fillcolor="#3a9de5"] ;
102 -> 128 ;
129 [label="volumes_delta <= 0.617\ngini = 0.02\nsamples = 0.0%\nvalue = [0.01, 0.99]\nclass = duplicate", fillcolor="#3b9ee5"] ;
128 -> 129 ;
130 [label="corporate_full_delta <= 0.25\ngini = 0.008\nsamples = 0.0%\nvalue = [0.004, 0.996]\nclass = duplicate", fillcolor="#3a9de5"] ;
129 -> 130 ;
131 [label="person_700_delta <= -0.275\ngini = 0.006\nsamples = 0.0%\nvalue = [0.003, 0.997]\nclass = duplicate", fillcolor="#3a9de5"] ;
130 -> 131 ;
132 [label="person_245c_delta <= 0.931\ngini = 0.024\nsamples = 0.0%\nvalue = [0.012, 0.988]\nclass = duplicate", fillcolor="#3b9ee5"] ;
131 -> 132 ;
133 [label="part_delta <= -0.75\ngini = 0.012\nsamples = 0.0%\nvalue = [0.006, 0.994]\nclass = duplicate", fillcolor="#3a9ee5"] ;
132 -> 133 ;
134 [label="pubinit_delta <= -0.25\ngini = 0.046\nsamples = 0.0%\nvalue = [0.024, 0.976]\nclass = duplicate", fillcolor="#3e9fe6"] ;
133 -> 134 ;
135 [label="gini = 0.0\nsamples = 0.0%\nvalue = [0.0, 1.0]\nclass = duplicate", fillcolor="#399de5"] ;
134 -> 135 ;
136 [label="gini = -0.0\nsamples = 0.0%\nvalue = [1.0, 0.0]\nclass = unique", fillcolor="#e58139"] ;
134 -> 136 ;
137 [label="gini = 0.0\nsamples = 0.0%\nvalue = [0.0, 1.0]\nclass = duplicate", fillcolor="#399de5"] ;
133 -> 137 ;
138 [label="gini = -0.0\nsamples = 0.0%\nvalue = [1.0, 0.0]\nclass = unique", fillcolor="#e58139"] ;
132 -> 138 ;
139 [label="gini = 0.0\nsamples = 0.0%\nvalue = [0.0, 1.0]\nclass = duplicate", fillcolor="#399de5"] ;
131 -> 139 ;
140 [label="gini = 0.0\nsamples = 0.0%\nvalue = [1.0, 0.0]\nclass = unique", fillcolor="#e58139"] ;
130 -> 140 ;
141 [label="gini = 0.0\nsamples = 0.0%\nvalue = [1.0, 0.0]\nclass = unique", fillcolor="#e58139"] ;
129 -> 141 ;
142 [label="gini = 0.0\nsamples = 0.1%\nvalue = [0.0, 1.0]\nclass = duplicate", fillcolor="#399de5"] ;
128 -> 142 ;
143 [label="format_postfix_delta <= 0.714\ngini = 0.078\nsamples = 0.0%\nvalue = [0.041, 0.959]\nclass = duplicate", fillcolor="#41a1e6"] ;
101 -> 143 ;
144 [label="gini = 0.0\nsamples = 0.0%\nvalue = [1.0, 0.0]\nclass = unique", fillcolor="#e58139"] ;
143 -> 144 ;
145 [label="gini = 0.0\nsamples = 0.0%\nvalue = [0.0, 1.0]\nclass = duplicate", fillcolor="#399de5"] ;
143 -> 145 ;
146 [label="gini = -0.0\nsamples = 0.0%\nvalue = [1.0, 0.0]\nclass = unique", fillcolor="#e58139"] ;
94 -> 146 ;
147 [label="ttlfull_245_delta <= 0.732\ngini = 0.002\nsamples = 0.2%\nvalue = [0.001, 0.999]\nclass = duplicate", fillcolor="#399de5"] ;
93 -> 147 ;
148 [label="gini = 0.0\nsamples = 0.0%\nvalue = [1.0, 0.0]\nclass = unique", fillcolor="#e58139"] ;
147 -> 148 ;
149 [label="person_245c_delta <= -0.75\ngini = 0.002\nsamples = 0.2%\nvalue = [0.001, 0.999]\nclass = duplicate", fillcolor="#399de5"] ;
147 -> 149 ;
150 [label="volumes_delta <= 0.722\ngini = 0.008\nsamples = 0.0%\nvalue = [0.004, 0.996]\nclass = duplicate", fillcolor="#3a9de5"] ;
149 -> 150 ;
151 [label="gini = 0.0\nsamples = 0.0%\nvalue = [0.0, 1.0]\nclass = duplicate", fillcolor="#399de5"] ;
150 -> 151 ;
152 [label="gini = -0.0\nsamples = 0.0%\nvalue = [1.0, 0.0]\nclass = unique", fillcolor="#e58139"] ;
150 -> 152 ;
153 [label="corporate_full_delta <= 0.061\ngini = 0.001\nsamples = 0.1%\nvalue = [0.001, 0.999]\nclass = duplicate", fillcolor="#399de5"] ;
149 -> 153 ;
154 [label="pubinit_delta <= 0.25\ngini = 0.001\nsamples = 0.1%\nvalue = [0.0, 1.0]\nclass = duplicate", fillcolor="#399de5"] ;
153 -> 154 ;
155 [label="gini = 0.0\nsamples = 0.1%\nvalue = [0.0, 1.0]\nclass = duplicate", fillcolor="#399de5"] ;
154 -> 155 ;
156 [label="person_700_delta <= -0.275\ngini = 0.01\nsamples = 0.0%\nvalue = [0.005, 0.995]\nclass = duplicate", fillcolor="#3a9de5"] ;
154 -> 156 ;
157 [label="gini = 0.0\nsamples = 0.0%\nvalue = [0.0, 1.0]\nclass = duplicate", fillcolor="#399de5"] ;
156 -> 157 ;
158 [label="gini = -0.0\nsamples = 0.0%\nvalue = [1.0, 0.0]\nclass = unique", fillcolor="#e58139"] ;
156 -> 158 ;
159 [label="volumes_delta <= 0.0\ngini = 0.004\nsamples = 0.0%\nvalue = [0.002, 0.998]\nclass = duplicate", fillcolor="#399de5"] ;
153 -> 159 ;
160 [label="gini = 0.0\nsamples = 0.0%\nvalue = [1.0, 0.0]\nclass = unique", fillcolor="#e58139"] ;
159 -> 160 ;
161 [label="gini = 0.0\nsamples = 0.0%\nvalue = [0.0, 1.0]\nclass = duplicate", fillcolor="#399de5"] ;
159 -> 161 ;
162 [label="ttlfull_245_delta <= 0.744\ngini = 0.001\nsamples = 0.3%\nvalue = [0.0, 1.0]\nclass = duplicate", fillcolor="#399de5"] ;
92 -> 162 ;
163 [label="gini = 0.0\nsamples = 0.0%\nvalue = [1.0, 0.0]\nclass = unique", fillcolor="#e58139"] ;
162 -> 163 ;
164 [label="person_245c_delta <= 0.013\ngini = 0.0\nsamples = 0.3%\nvalue = [0.0, 1.0]\nclass = duplicate", fillcolor="#399de5"] ;
162 -> 164 ;
165 [label="person_700_delta <= 0.081\ngini = 0.001\nsamples = 0.1%\nvalue = [0.001, 0.999]\nclass = duplicate", fillcolor="#399de5"] ;
164 -> 165 ;
166 [label="corporate_full_delta <= 0.494\ngini = 0.001\nsamples = 0.1%\nvalue = [0.0, 1.0]\nclass = duplicate", fillcolor="#399de5"] ;
165 -> 166 ;
167 [label="gini = 0.0\nsamples = 0.1%\nvalue = [0.0, 1.0]\nclass = duplicate", fillcolor="#399de5"] ;
166 -> 167 ;
168 [label="corporate_full_delta <= 0.825\ngini = 0.008\nsamples = 0.0%\nvalue = [0.004, 0.996]\nclass = duplicate", fillcolor="#3a9de5"] ;
166 -> 168 ;
169 [label="gini = 0.0\nsamples = 0.0%\nvalue = [1.0, 0.0]\nclass = unique", fillcolor="#e58139"] ;
168 -> 169 ;
170 [label="gini = 0.0\nsamples = 0.0%\nvalue = [0.0, 1.0]\nclass = duplicate", fillcolor="#399de5"] ;
168 -> 170 ;
171 [label="ttlfull_246_delta <= -0.75\ngini = 0.024\nsamples = 0.0%\nvalue = [0.012, 0.988]\nclass = duplicate", fillcolor="#3b9ee5"] ;
165 -> 171 ;
172 [label="gini = 0.0\nsamples = 0.0%\nvalue = [0.0, 1.0]\nclass = duplicate", fillcolor="#399de5"] ;
171 -> 172 ;
173 [label="gini = -0.0\nsamples = 0.0%\nvalue = [1.0, 0.0]\nclass = unique", fillcolor="#e58139"] ;
171 -> 173 ;
174 [label="gini = -0.0\nsamples = 0.2%\nvalue = [0.0, 1.0]\nclass = duplicate", fillcolor="#399de5"] ;
164 -> 174 ;
175 [label="volumes_delta <= -0.25\ngini = 0.053\nsamples = 0.2%\nvalue = [0.027, 0.973]\nclass = duplicate", fillcolor="#3fa0e6"] ;
89 -> 175 ;
176 [label="gini = 0.0\nsamples = 0.0%\nvalue = [1.0, 0.0]\nclass = unique", fillcolor="#e58139"] ;
175 -> 176 ;
177 [label="exactDate_delta <= 0.875\ngini = 0.044\nsamples = 0.2%\nvalue = [0.023, 0.977]\nclass = duplicate", fillcolor="#3e9fe6"] ;
175 -> 177 ;
178 [label="edition_delta <= -0.75\ngini = 0.042\nsamples = 0.2%\nvalue = [0.022, 0.978]\nclass = duplicate", fillcolor="#3d9fe6"] ;
177 -> 178 ;
179 [label="pubinit_delta <= 0.154\ngini = 0.041\nsamples = 0.2%\nvalue = [0.021, 0.979]\nclass = duplicate", fillcolor="#3d9fe6"] ;
178 -> 179 ;
180 [label="volumes_delta <= 0.628\ngini = 0.04\nsamples = 0.2%\nvalue = [0.02, 0.98]\nclass = duplicate", fillcolor="#3d9fe6"] ;
179 -> 180 ;
181 [label="ttlfull_245_delta <= 0.837\ngini = 0.193\nsamples = 0.0%\nvalue = [0.108, 0.892]\nclass = duplicate", fillcolor="#51a9e8"] ;
180 -> 181 ;
182 [label="pubinit_delta <= -0.75\ngini = 0.078\nsamples = 0.0%\nvalue = [0.041, 0.959]\nclass = duplicate", fillcolor="#41a1e6"] ;
181 -> 182 ;
183 [label="format_postfix_delta <= 0.714\ngini = 0.035\nsamples = 0.0%\nvalue = [0.018, 0.982]\nclass = duplicate", fillcolor="#3d9fe5"] ;
182 -> 183 ;
184 [label="musicid_delta <= 0.25\ngini = 0.012\nsamples = 0.0%\nvalue = [0.006, 0.994]\nclass = duplicate", fillcolor="#3a9ee5"] ;
183 -> 184 ;
185 [label="gini = 0.0\nsamples = 0.0%\nvalue = [0.0, 1.0]\nclass = duplicate", fillcolor="#399de5"] ;
184 -> 185 ;
186 [label="gini = -0.0\nsamples = 0.0%\nvalue = [1.0, 0.0]\nclass = unique", fillcolor="#e58139"] ;
184 -> 186 ;
187 [label="gini = 0.0\nsamples = 0.0%\nvalue = [1.0, 0.0]\nclass = unique", fillcolor="#e58139"] ;
183 -> 187 ;
188 [label="gini = 0.0\nsamples = 0.0%\nvalue = [1.0, 0.0]\nclass = unique", fillcolor="#e58139"] ;
182 -> 188 ;
189 [label="gini = -0.0\nsamples = 0.0%\nvalue = [1.0, 0.0]\nclass = unique", fillcolor="#e58139"] ;
181 -> 189 ;
190 [label="volumes_delta <= 0.784\ngini = 0.029\nsamples = 0.1%\nvalue = [0.014, 0.986]\nclass = duplicate", fillcolor="#3c9ee5"] ;
180 -> 190 ;
191 [label="musicid_delta <= 0.846\ngini = 0.018\nsamples = 0.1%\nvalue = [0.009, 0.991]\nclass = duplicate", fillcolor="#3b9ee5"] ;
190 -> 191 ;
192 [label="person_245c_delta <= -0.75\ngini = 0.031\nsamples = 0.1%\nvalue = [0.016, 0.984]\nclass = duplicate", fillcolor="#3c9fe5"] ;
191 -> 192 ;
193 [label="gini = 0.0\nsamples = 0.0%\nvalue = [1.0, 0.0]\nclass = unique", fillcolor="#e58139"] ;
192 -> 193 ;
194 [label="part_delta <= 0.157\ngini = 0.029\nsamples = 0.1%\nvalue = [0.014, 0.986]\nclass = duplicate", fillcolor="#3c9ee5"] ;
192 -> 194 ;
195 [label="person_700_delta <= 0.548\ngini = 0.027\nsamples = 0.1%\nvalue = [0.014, 0.986]\nclass = duplicate", fillcolor="#3c9ee5"] ;
194 -> 195 ;
196 [label="musicid_delta <= 0.4\ngini = 0.009\nsamples = 0.0%\nvalue = [0.005, 0.995]\nclass = duplicate", fillcolor="#3a9de5"] ;
195 -> 196 ;
197 [label="volumes_delta <= 0.764\ngini = 0.007\nsamples = 0.0%\nvalue = [0.003, 0.997]\nclass = duplicate", fillcolor="#3a9de5"] ;
196 -> 197 ;
198 [label="gini = 0.0\nsamples = 0.0%\nvalue = [0.0, 1.0]\nclass = duplicate", fillcolor="#399de5"] ;
197 -> 198 ;
199 [label="person_245c_delta <= 0.717\ngini = 0.068\nsamples = 0.0%\nvalue = [0.035, 0.965]\nclass = duplicate", fillcolor="#40a1e6"] ;
197 -> 199 ;
200 [label="gini = -0.0\nsamples = 0.0%\nvalue = [1.0, 0.0]\nclass = unique", fillcolor="#e58139"] ;
199 -> 200 ;
201 [label="gini = 0.0\nsamples = 0.0%\nvalue = [0.0, 1.0]\nclass = duplicate", fillcolor="#399de5"] ;
199 -> 201 ;
202 [label="gini = 0.0\nsamples = 0.0%\nvalue = [1.0, 0.0]\nclass = unique", fillcolor="#e58139"] ;
196 -> 202 ;
203 [label="person_700_delta <= 0.607\ngini = 0.057\nsamples = 0.0%\nvalue = [0.029, 0.971]\nclass = duplicate", fillcolor="#3fa0e6"] ;
195 -> 203 ;
204 [label="gini = 0.0\nsamples = 0.0%\nvalue = [1.0, 0.0]\nclass = unique", fillcolor="#e58139"] ;
203 -> 204 ;
205 [label="part_delta <= -0.75\ngini = 0.05\nsamples = 0.0%\nvalue = [0.026, 0.974]\nclass = duplicate", fillcolor="#3ea0e6"] ;
203 -> 205 ;
206 [label="person_700_delta <= 0.885\ngini = 0.043\nsamples = 0.0%\nvalue = [0.022, 0.978]\nclass = duplicate", fillcolor="#3d9fe6"] ;
205 -> 206 ;
207 [label="person_700_delta <= 0.838\ngini = 0.126\nsamples = 0.0%\nvalue = [0.068, 0.932]\nclass = duplicate", fillcolor="#47a4e7"] ;
206 -> 207 ;
208 [label="musicid_delta <= 0.238\ngini = 0.046\nsamples = 0.0%\nvalue = [0.024, 0.976]\nclass = duplicate", fillcolor="#3e9fe6"] ;
207 -> 208 ;
209 [label="person_245c_delta <= 0.917\ngini = 0.031\nsamples = 0.0%\nvalue = [0.016, 0.984]\nclass = duplicate", fillcolor="#3c9fe5"] ;
208 -> 209 ;
210 [label="ttlfull_245_delta <= 0.856\ngini = 0.046\nsamples = 0.0%\nvalue = [0.024, 0.976]\nclass = duplicate", fillcolor="#3e9fe6"] ;
209 -> 210 ;
211 [label="gini = 0.024\nsamples = 0.0%\nvalue = [0.012, 0.988]\nclass = duplicate", fillcolor="#3b9ee5"] ;
210 -> 211 ;
212 [label="gini = -0.0\nsamples = 0.0%\nvalue = [1.0, 0.0]\nclass = unique", fillcolor="#e58139"] ;
210 -> 212 ;
213 [label="gini = 0.0\nsamples = 0.0%\nvalue = [0.0, 1.0]\nclass = duplicate", fillcolor="#399de5"] ;
209 -> 213 ;
214 [label="gini = 0.0\nsamples = 0.0%\nvalue = [1.0, 0.0]\nclass = unique", fillcolor="#e58139"] ;
208 -> 214 ;
215 [label="gini = -0.0\nsamples = 0.0%\nvalue = [1.0, 0.0]\nclass = unique", fillcolor="#e58139"] ;
207 -> 215 ;
216 [label="person_245c_delta <= 0.845\ngini = 0.011\nsamples = 0.0%\nvalue = [0.005, 0.995]\nclass = duplicate", fillcolor="#3a9ee5"] ;
206 -> 216 ;
217 [label="gini = 0.0\nsamples = 0.0%\nvalue = [0.0, 1.0]\nclass = duplicate", fillcolor="#399de5"] ;
216 -> 217 ;
218 [label="gini = -0.0\nsamples = 0.0%\nvalue = [1.0, 0.0]\nclass = unique", fillcolor="#e58139"] ;
216 -> 218 ;
219 [label="gini = 0.0\nsamples = 0.0%\nvalue = [1.0, 0.0]\nclass = unique", fillcolor="#e58139"] ;
205 -> 219 ;
220 [label="gini = 0.0\nsamples = 0.0%\nvalue = [1.0, 0.0]\nclass = unique", fillcolor="#e58139"] ;
194 -> 220 ;
221 [label="part_delta <= 0.907\ngini = 0.002\nsamples = 0.0%\nvalue = [0.001, 0.999]\nclass = duplicate", fillcolor="#399de5"] ;
191 -> 221 ;
222 [label="gini = 0.0\nsamples = 0.0%\nvalue = [0.0, 1.0]\nclass = duplicate", fillcolor="#399de5"] ;
221 -> 222 ;
223 [label="person_700_delta <= -0.75\ngini = 0.024\nsamples = 0.0%\nvalue = [0.012, 0.988]\nclass = duplicate", fillcolor="#3b9ee5"] ;
221 -> 223 ;
224 [label="gini = 0.0\nsamples = 0.0%\nvalue = [0.0, 1.0]\nclass = duplicate", fillcolor="#399de5"] ;
223 -> 224 ;
225 [label="gini = -0.0\nsamples = 0.0%\nvalue = [1.0, 0.0]\nclass = unique", fillcolor="#e58139"] ;
223 -> 225 ;
226 [label="volumes_delta <= 0.871\ngini = 0.141\nsamples = 0.0%\nvalue = [0.076, 0.924]\nclass = duplicate", fillcolor="#49a5e7"] ;
190 -> 226 ;
227 [label="gini = 0.0\nsamples = 0.0%\nvalue = [1.0, 0.0]\nclass = unique", fillcolor="#e58139"] ;
226 -> 227 ;
228 [label="musicid_delta <= 0.0\ngini = 0.028\nsamples = 0.0%\nvalue = [0.014, 0.986]\nclass = duplicate", fillcolor="#3c9ee5"] ;
226 -> 228 ;
229 [label="gini = 0.0\nsamples = 0.0%\nvalue = [0.0, 1.0]\nclass = duplicate", fillcolor="#399de5"] ;
228 -> 229 ;
230 [label="gini = -0.0\nsamples = 0.0%\nvalue = [1.0, 0.0]\nclass = unique", fillcolor="#e58139"] ;
228 -> 230 ;
231 [label="gini = 0.0\nsamples = 0.0%\nvalue = [1.0, 0.0]\nclass = unique", fillcolor="#e58139"] ;
179 -> 231 ;
232 [label="gini = 0.0\nsamples = 0.0%\nvalue = [1.0, 0.0]\nclass = unique", fillcolor="#e58139"] ;
178 -> 232 ;
233 [label="gini = 0.0\nsamples = 0.0%\nvalue = [1.0, 0.0]\nclass = unique", fillcolor="#e58139"] ;
177 -> 233 ;
234 [label="ttlfull_245_delta <= 0.735\ngini = 0.001\nsamples = 1.6%\nvalue = [0.0, 1.0]\nclass = duplicate", fillcolor="#399de5"] ;
88 -> 234 ;
235 [label="ttlfull_245_delta <= 0.718\ngini = 0.006\nsamples = 0.0%\nvalue = [0.003, 0.997]\nclass = duplicate", fillcolor="#3a9de5"] ;
234 -> 235 ;
236 [label="gini = 0.0\nsamples = 0.0%\nvalue = [0.0, 1.0]\nclass = duplicate", fillcolor="#399de5"] ;
235 -> 236 ;
237 [label="gini = -0.0\nsamples = 0.0%\nvalue = [1.0, 0.0]\nclass = unique", fillcolor="#e58139"] ;
235 -> 237 ;
238 [label="coordinate_E_delta <= -0.75\ngini = 0.001\nsamples = 1.6%\nvalue = [0.0, 1.0]\nclass = duplicate", fillcolor="#399de5"] ;
234 -> 238 ;
239 [label="person_245c_delta <= 0.8\ngini = 0.0\nsamples = 1.5%\nvalue = [0.0, 1.0]\nclass = duplicate", fillcolor="#399de5"] ;
238 -> 239 ;
240 [label="person_245c_delta <= 0.796\ngini = 0.001\nsamples = 0.5%\nvalue = [0.0, 1.0]\nclass = duplicate", fillcolor="#399de5"] ;
239 -> 240 ;
241 [label="person_100_delta <= -0.75\ngini = 0.001\nsamples = 0.5%\nvalue = [0.0, 1.0]\nclass = duplicate", fillcolor="#399de5"] ;
240 -> 241 ;
242 [label="person_700_delta <= 0.881\ngini = 0.0\nsamples = 0.3%\nvalue = [0.0, 1.0]\nclass = duplicate", fillcolor="#399de5"] ;
241 -> 242 ;
243 [label="gini = 0.0\nsamples = 0.3%\nvalue = [0.0, 1.0]\nclass = duplicate", fillcolor="#399de5"] ;
242 -> 243 ;
244 [label="person_700_delta <= 0.886\ngini = 0.001\nsamples = 0.1%\nvalue = [0.001, 0.999]\nclass = duplicate", fillcolor="#399de5"] ;
242 -> 244 ;
245 [label="gini = 0.0\nsamples = 0.0%\nvalue = [1.0, 0.0]\nclass = unique", fillcolor="#e58139"] ;
244 -> 245 ;
246 [label="gini = 0.0\nsamples = 0.1%\nvalue = [0.0, 1.0]\nclass = duplicate", fillcolor="#399de5"] ;
244 -> 246 ;
247 [label="person_700_delta <= -0.75\ngini = 0.002\nsamples = 0.2%\nvalue = [0.001, 0.999]\nclass = duplicate", fillcolor="#399de5"] ;
241 -> 247 ;
248 [label="corporate_full_delta <= -0.75\ngini = 0.009\nsamples = 0.0%\nvalue = [0.005, 0.995]\nclass = duplicate", fillcolor="#3a9de5"] ;
247 -> 248 ;
249 [label="ttlfull_245_delta <= 0.995\ngini = 0.003\nsamples = 0.0%\nvalue = [0.002, 0.998]\nclass = duplicate", fillcolor="#399de5"] ;
248 -> 249 ;
250 [label="gini = 0.0\nsamples = 0.0%\nvalue = [1.0, 0.0]\nclass = unique", fillcolor="#e58139"] ;
249 -> 250 ;
251 [label="gini = 0.0\nsamples = 0.0%\nvalue = [0.0, 1.0]\nclass = duplicate", fillcolor="#399de5"] ;
249 -> 251 ;
252 [label="gini = 0.0\nsamples = 0.0%\nvalue = [1.0, 0.0]\nclass = unique", fillcolor="#e58139"] ;
248 -> 252 ;
253 [label="pubinit_delta <= 0.889\ngini = 0.001\nsamples = 0.2%\nvalue = [0.001, 0.999]\nclass = duplicate", fillcolor="#399de5"] ;
247 -> 253 ;
254 [label="person_700_delta <= -0.006\ngini = 0.001\nsamples = 0.2%\nvalue = [0.0, 1.0]\nclass = duplicate", fillcolor="#399de5"] ;
253 -> 254 ;
255 [label="corporate_full_delta <= -0.75\ngini = 0.003\nsamples = 0.0%\nvalue = [0.002, 0.998]\nclass = duplicate", fillcolor="#399de5"] ;
254 -> 255 ;
256 [label="musicid_delta <= 0.875\ngini = 0.002\nsamples = 0.0%\nvalue = [0.001, 0.999]\nclass = duplicate", fillcolor="#399de5"] ;
255 -> 256 ;
257 [label="gini = 0.0\nsamples = 0.0%\nvalue = [0.0, 1.0]\nclass = duplicate", fillcolor="#399de5"] ;
256 -> 257 ;
258 [label="part_delta <= -0.75\ngini = 0.024\nsamples = 0.0%\nvalue = [0.012, 0.988]\nclass = duplicate", fillcolor="#3b9ee5"] ;
256 -> 258 ;
259 [label="gini = 0.0\nsamples = 0.0%\nvalue = [0.0, 1.0]\nclass = duplicate", fillcolor="#399de5"] ;
258 -> 259 ;
260 [label="gini = -0.0\nsamples = 0.0%\nvalue = [1.0, 0.0]\nclass = unique", fillcolor="#e58139"] ;
258 -> 260 ;
261 [label="gini = -0.0\nsamples = 0.0%\nvalue = [1.0, 0.0]\nclass = unique", fillcolor="#e58139"] ;
255 -> 261 ;
262 [label="gini = -0.0\nsamples = 0.1%\nvalue = [0.0, 1.0]\nclass = duplicate", fillcolor="#399de5"] ;
254 -> 262 ;
263 [label="person_245c_delta <= 0.138\ngini = 0.016\nsamples = 0.0%\nvalue = [0.008, 0.992]\nclass = duplicate", fillcolor="#3b9ee5"] ;
253 -> 263 ;
264 [label="gini = 0.0\nsamples = 0.0%\nvalue = [0.0, 1.0]\nclass = duplicate", fillcolor="#399de5"] ;
263 -> 264 ;
265 [label="gini = -0.0\nsamples = 0.0%\nvalue = [1.0, 0.0]\nclass = unique", fillcolor="#e58139"] ;
263 -> 265 ;
266 [label="isbn_delta <= 0.5\ngini = 0.024\nsamples = 0.0%\nvalue = [0.012, 0.988]\nclass = duplicate", fillcolor="#3b9ee5"] ;
240 -> 266 ;
267 [label="gini = 0.0\nsamples = 0.0%\nvalue = [0.0, 1.0]\nclass = duplicate", fillcolor="#399de5"] ;
266 -> 267 ;
268 [label="gini = -0.0\nsamples = 0.0%\nvalue = [1.0, 0.0]\nclass = unique", fillcolor="#e58139"] ;
266 -> 268 ;
269 [label="isbn_delta <= 0.25\ngini = 0.0\nsamples = 0.9%\nvalue = [0.0, 1.0]\nclass = duplicate", fillcolor="#399de5"] ;
239 -> 269 ;
270 [label="part_delta <= -0.75\ngini = 0.0\nsamples = 0.2%\nvalue = [0.0, 1.0]\nclass = duplicate", fillcolor="#399de5"] ;
269 -> 270 ;
271 [label="ttlfull_245_delta <= 0.995\ngini = 0.004\nsamples = 0.0%\nvalue = [0.002, 0.998]\nclass = duplicate", fillcolor="#399de5"] ;
270 -> 271 ;
272 [label="gini = 0.0\nsamples = 0.0%\nvalue = [0.0, 1.0]\nclass = duplicate", fillcolor="#399de5"] ;
271 -> 272 ;
273 [label="ttlfull_246_delta <= -0.75\ngini = 0.016\nsamples = 0.0%\nvalue = [0.008, 0.992]\nclass = duplicate", fillcolor="#3b9ee5"] ;
271 -> 273 ;
274 [label="person_245c_delta <= 0.96\ngini = 0.046\nsamples = 0.0%\nvalue = [0.024, 0.976]\nclass = duplicate", fillcolor="#3e9fe6"] ;
273 -> 274 ;
275 [label="gini = 0.0\nsamples = 0.0%\nvalue = [0.0, 1.0]\nclass = duplicate", fillcolor="#399de5"] ;
274 -> 275 ;
276 [label="gini = -0.0\nsamples = 0.0%\nvalue = [1.0, 0.0]\nclass = unique", fillcolor="#e58139"] ;
274 -> 276 ;
277 [label="gini = 0.0\nsamples = 0.0%\nvalue = [0.0, 1.0]\nclass = duplicate", fillcolor="#399de5"] ;
273 -> 277 ;
278 [label="gini = 0.0\nsamples = 0.1%\nvalue = [0.0, 1.0]\nclass = duplicate", fillcolor="#399de5"] ;
270 -> 278 ;
279 [label="gini = -0.0\nsamples = 0.8%\nvalue = [0.0, 1.0]\nclass = duplicate", fillcolor="#399de5"] ;
269 -> 279 ;
280 [label="scale_delta <= -0.161\ngini = 0.003\nsamples = 0.1%\nvalue = [0.002, 0.998]\nclass = duplicate", fillcolor="#399de5"] ;
238 -> 280 ;
281 [label="gini = 0.0\nsamples = 0.0%\nvalue = [1.0, 0.0]\nclass = unique", fillcolor="#e58139"] ;
280 -> 281 ;
282 [label="pubinit_delta <= 0.041\ngini = 0.002\nsamples = 0.1%\nvalue = [0.001, 0.999]\nclass = duplicate", fillcolor="#399de5"] ;
280 -> 282 ;
283 [label="gini = -0.0\nsamples = 0.1%\nvalue = [0.0, 1.0]\nclass = duplicate", fillcolor="#399de5"] ;
282 -> 283 ;
284 [label="pubinit_delta <= 0.749\ngini = 0.006\nsamples = 0.0%\nvalue = [0.003, 0.997]\nclass = duplicate", fillcolor="#3a9de5"] ;
282 -> 284 ;
285 [label="gini = 0.0\nsamples = 0.0%\nvalue = [1.0, 0.0]\nclass = unique", fillcolor="#e58139"] ;
284 -> 285 ;
286 [label="gini = 0.0\nsamples = 0.0%\nvalue = [0.0, 1.0]\nclass = duplicate", fillcolor="#399de5"] ;
284 -> 286 ;
}