digraph Tree {
node [shape=box, style="filled, rounded", color="black", fontname=helvetica] ;
edge [fontname=helvetica] ;
0 [label="ttlfull_245_delta <= 0.951\ngini = 0.011\nsamples = 100.0%\nvalue = [0.994, 0.006]\nclass = unique", fillcolor="#e5823a"] ;
1 [label="exactDate_delta <= 0.938\ngini = 0.002\nsamples = 98.8%\nvalue = [0.999, 0.001]\nclass = unique", fillcolor="#e58139"] ;
0 -> 1 [labeldistance=2.5, labelangle=45, headlabel="True"] ;
2 [label="ttlfull_246_delta <= 0.865\ngini = 0.002\nsamples = 98.8%\nvalue = [0.999, 0.001]\nclass = unique", fillcolor="#e58139"] ;
1 -> 2 ;
3 [label="musicid_delta <= 0.875\ngini = 0.002\nsamples = 98.7%\nvalue = [0.999, 0.001]\nclass = unique", fillcolor="#e58139"] ;
2 -> 3 ;
4 [label="exactDate_delta <= 0.719\ngini = 0.002\nsamples = 98.7%\nvalue = [0.999, 0.001]\nclass = unique", fillcolor="#e58139"] ;
3 -> 4 ;
5 [label="ttlfull_245_delta <= 0.737\ngini = 0.0\nsamples = 97.2%\nvalue = [1.0, 0.0]\nclass = unique", fillcolor="#e58139"] ;
4 -> 5 ;
6 [label="person_245c_delta <= 0.672\ngini = 0.0\nsamples = 91.0%\nvalue = [1.0, 0.0]\nclass = unique", fillcolor="#e58139"] ;
5 -> 6 ;
7 [label="gini = 0.0\nsamples = 89.4%\nvalue = [1.0, 0.0]\nclass = unique", fillcolor="#e58139"] ;
6 -> 7 ;
8 [label="person_245c_delta <= 0.672\ngini = 0.001\nsamples = 1.6%\nvalue = [1.0, 0.0]\nclass = unique", fillcolor="#e58139"] ;
6 -> 8 ;
9 [label="ttlfull_245_delta <= 0.608\ngini = 0.219\nsamples = 0.0%\nvalue = [0.875, 0.125]\nclass = unique", fillcolor="#e99355"] ;
8 -> 9 ;
10 [label="gini = 0.0\nsamples = 0.0%\nvalue = [0.0, 1.0]\nclass = duplicate", fillcolor="#399de5"] ;
9 -> 10 ;
11 [label="gini = 0.0\nsamples = 0.0%\nvalue = [1.0, 0.0]\nclass = unique", fillcolor="#e58139"] ;
9 -> 11 ;
12 [label="gini = 0.0\nsamples = 1.6%\nvalue = [1.0, 0.0]\nclass = unique", fillcolor="#e58139"] ;
8 -> 12 ;
13 [label="ttlfull_245_delta <= 0.737\ngini = 0.005\nsamples = 6.2%\nvalue = [0.998, 0.002]\nclass = unique", fillcolor="#e58139"] ;
5 -> 13 ;
14 [label="gini = 0.0\nsamples = 0.0%\nvalue = [0.0, 1.0]\nclass = duplicate", fillcolor="#399de5"] ;
13 -> 14 ;
15 [label="volumes_delta <= 0.967\ngini = 0.004\nsamples = 6.2%\nvalue = [0.998, 0.002]\nclass = unique", fillcolor="#e58139"] ;
13 -> 15 ;
16 [label="format_prefix_delta <= 0.5\ngini = 0.002\nsamples = 5.9%\nvalue = [0.999, 0.001]\nclass = unique", fillcolor="#e58139"] ;
15 -> 16 ;
17 [label="gini = 0.0\nsamples = 3.0%\nvalue = [1.0, 0.0]\nclass = unique", fillcolor="#e58139"] ;
16 -> 17 ;
18 [label="pubinit_delta <= -0.025\ngini = 0.005\nsamples = 2.9%\nvalue = [0.998, 0.002]\nclass = unique", fillcolor="#e58139"] ;
16 -> 18 ;
19 [label="volumes_delta <= -0.025\ngini = 0.01\nsamples = 1.2%\nvalue = [0.995, 0.005]\nclass = unique", fillcolor="#e5823a"] ;
18 -> 19 ;
20 [label="person_700_delta <= 0.557\ngini = 0.026\nsamples = 0.2%\nvalue = [0.987, 0.013]\nclass = unique", fillcolor="#e5833c"] ;
19 -> 20 ;
21 [label="ttlfull_245_delta <= 0.747\ngini = 0.013\nsamples = 0.2%\nvalue = [0.993, 0.007]\nclass = unique", fillcolor="#e5823a"] ;
20 -> 21 ;
22 [label="ttlfull_245_delta <= 0.747\ngini = 0.087\nsamples = 0.0%\nvalue = [0.955, 0.045]\nclass = unique", fillcolor="#e68742"] ;
21 -> 22 ;
23 [label="gini = 0.0\nsamples = 0.0%\nvalue = [1.0, 0.0]\nclass = unique", fillcolor="#e58139"] ;
22 -> 23 ;
24 [label="person_700_delta <= -0.075\ngini = 0.408\nsamples = 0.0%\nvalue = [0.714, 0.286]\nclass = unique", fillcolor="#efb388"] ;
22 -> 24 ;
25 [label="gini = 0.0\nsamples = 0.0%\nvalue = [0.0, 1.0]\nclass = duplicate", fillcolor="#399de5"] ;
24 -> 25 ;
26 [label="gini = 0.0\nsamples = 0.0%\nvalue = [1.0, 0.0]\nclass = unique", fillcolor="#e58139"] ;
24 -> 26 ;
27 [label="gini = 0.0\nsamples = 0.2%\nvalue = [1.0, 0.0]\nclass = unique", fillcolor="#e58139"] ;
21 -> 27 ;
28 [label="person_700_delta <= 0.558\ngini = 0.072\nsamples = 0.0%\nvalue = [0.962, 0.038]\nclass = unique", fillcolor="#e68641"] ;
20 -> 28 ;
29 [label="gini = 0.0\nsamples = 0.0%\nvalue = [0.0, 1.0]\nclass = duplicate", fillcolor="#399de5"] ;
28 -> 29 ;
30 [label="format_postfix_delta <= 0.714\ngini = 0.049\nsamples = 0.0%\nvalue = [0.975, 0.025]\nclass = unique", fillcolor="#e6843e"] ;
28 -> 30 ;
31 [label="gini = 0.0\nsamples = 0.0%\nvalue = [1.0, 0.0]\nclass = unique", fillcolor="#e58139"] ;
30 -> 31 ;
32 [label="exactDate_delta <= 0.562\ngini = 0.26\nsamples = 0.0%\nvalue = [0.846, 0.154]\nclass = unique", fillcolor="#ea985d"] ;
30 -> 32 ;
33 [label="gini = 0.0\nsamples = 0.0%\nvalue = [1.0, 0.0]\nclass = unique", fillcolor="#e58139"] ;
32 -> 33 ;
34 [label="ttlfull_245_delta <= 0.813\ngini = 0.444\nsamples = 0.0%\nvalue = [0.333, 0.667]\nclass = duplicate", fillcolor="#9ccef2"] ;
32 -> 34 ;
35 [label="gini = 0.0\nsamples = 0.0%\nvalue = [0.0, 1.0]\nclass = duplicate", fillcolor="#399de5"] ;
34 -> 35 ;
36 [label="gini = 0.0\nsamples = 0.0%\nvalue = [1.0, 0.0]\nclass = unique", fillcolor="#e58139"] ;
34 -> 36 ;
37 [label="person_245c_delta <= 0.876\ngini = 0.006\nsamples = 1.0%\nvalue = [0.997, 0.003]\nclass = unique", fillcolor="#e5813a"] ;
19 -> 37 ;
38 [label="person_700_delta <= 0.872\ngini = 0.005\nsamples = 1.0%\nvalue = [0.998, 0.002]\nclass = unique", fillcolor="#e58139"] ;
37 -> 38 ;
39 [label="ttlfull_246_delta <= -0.075\ngini = 0.003\nsamples = 0.9%\nvalue = [0.999, 0.001]\nclass = unique", fillcolor="#e58139"] ;
38 -> 39 ;
40 [label="exactDate_delta <= 0.594\ngini = 0.001\nsamples = 0.8%\nvalue = [0.999, 0.001]\nclass = unique", fillcolor="#e58139"] ;
39 -> 40 ;
41 [label="gini = 0.0\nsamples = 0.7%\nvalue = [1.0, 0.0]\nclass = unique", fillcolor="#e58139"] ;
40 -> 41 ;
42 [label="person_245c_delta <= 0.714\ngini = 0.013\nsamples = 0.1%\nvalue = [0.993, 0.007]\nclass = unique", fillcolor="#e5823a"] ;
40 -> 42 ;
43 [label="gini = 0.0\nsamples = 0.1%\nvalue = [1.0, 0.0]\nclass = unique", fillcolor="#e58139"] ;
42 -> 43 ;
44 [label="person_245c_delta <= 0.717\ngini = 0.054\nsamples = 0.0%\nvalue = [0.972, 0.028]\nclass = unique", fillcolor="#e6853f"] ;
42 -> 44 ;
45 [label="gini = 0.0\nsamples = 0.0%\nvalue = [0.0, 1.0]\nclass = duplicate", fillcolor="#399de5"] ;
44 -> 45 ;
46 [label="gini = 0.0\nsamples = 0.0%\nvalue = [1.0, 0.0]\nclass = unique", fillcolor="#e58139"] ;
44 -> 46 ;
47 [label="musicid_delta <= -0.025\ngini = 0.019\nsamples = 0.1%\nvalue = [0.99, 0.01]\nclass = unique", fillcolor="#e5823b"] ;
39 -> 47 ;
48 [label="ttlfull_245_delta <= 0.794\ngini = 0.074\nsamples = 0.0%\nvalue = [0.962, 0.038]\nclass = unique", fillcolor="#e68641"] ;
47 -> 48 ;
49 [label="gini = 0.0\nsamples = 0.0%\nvalue = [1.0, 0.0]\nclass = unique", fillcolor="#e58139"] ;
48 -> 49 ;
50 [label="ttlfull_245_delta <= 0.798\ngini = 0.32\nsamples = 0.0%\nvalue = [0.8, 0.2]\nclass = unique", fillcolor="#eca06a"] ;
48 -> 50 ;
51 [label="gini = 0.0\nsamples = 0.0%\nvalue = [0.0, 1.0]\nclass = duplicate", fillcolor="#399de5"] ;
50 -> 51 ;
52 [label="gini = 0.0\nsamples = 0.0%\nvalue = [1.0, 0.0]\nclass = unique", fillcolor="#e58139"] ;
50 -> 52 ;
53 [label="gini = 0.0\nsamples = 0.0%\nvalue = [1.0, 0.0]\nclass = unique", fillcolor="#e58139"] ;
47 -> 53 ;
54 [label="person_700_delta <= 0.872\ngini = 0.02\nsamples = 0.1%\nvalue = [0.99, 0.01]\nclass = unique", fillcolor="#e5823b"] ;
38 -> 54 ;
55 [label="person_245c_delta <= 0.609\ngini = 0.32\nsamples = 0.0%\nvalue = [0.8, 0.2]\nclass = unique", fillcolor="#eca06a"] ;
54 -> 55 ;
56 [label="ttlfull_245_delta <= 0.8\ngini = 0.444\nsamples = 0.0%\nvalue = [0.333, 0.667]\nclass = duplicate", fillcolor="#9ccef2"] ;
55 -> 56 ;
57 [label="gini = 0.0\nsamples = 0.0%\nvalue = [0.0, 1.0]\nclass = duplicate", fillcolor="#399de5"] ;
56 -> 57 ;
58 [label="gini = 0.0\nsamples = 0.0%\nvalue = [1.0, 0.0]\nclass = unique", fillcolor="#e58139"] ;
56 -> 58 ;
59 [label="gini = 0.0\nsamples = 0.0%\nvalue = [1.0, 0.0]\nclass = unique", fillcolor="#e58139"] ;
55 -> 59 ;
60 [label="gini = 0.0\nsamples = 0.1%\nvalue = [1.0, 0.0]\nclass = unique", fillcolor="#e58139"] ;
54 -> 60 ;
61 [label="person_245c_delta <= 0.881\ngini = 0.053\nsamples = 0.0%\nvalue = [0.973, 0.027]\nclass = unique", fillcolor="#e6843e"] ;
37 -> 61 ;
62 [label="gini = 0.0\nsamples = 0.0%\nvalue = [0.0, 1.0]\nclass = duplicate", fillcolor="#399de5"] ;
61 -> 62 ;
63 [label="gini = 0.0\nsamples = 0.0%\nvalue = [1.0, 0.0]\nclass = unique", fillcolor="#e58139"] ;
61 -> 63 ;
64 [label="corporate_full_delta <= 0.49\ngini = 0.001\nsamples = 1.7%\nvalue = [1.0, 0.0]\nclass = unique", fillcolor="#e58139"] ;
18 -> 64 ;
65 [label="gini = 0.0\nsamples = 1.6%\nvalue = [1.0, 0.0]\nclass = unique", fillcolor="#e58139"] ;
64 -> 65 ;
66 [label="corporate_full_delta <= 0.529\ngini = 0.029\nsamples = 0.0%\nvalue = [0.985, 0.015]\nclass = unique", fillcolor="#e5833c"] ;
64 -> 66 ;
67 [label="gini = 0.0\nsamples = 0.0%\nvalue = [0.0, 1.0]\nclass = duplicate", fillcolor="#399de5"] ;
66 -> 67 ;
68 [label="gini = 0.0\nsamples = 0.0%\nvalue = [1.0, 0.0]\nclass = unique", fillcolor="#e58139"] ;
66 -> 68 ;
69 [label="ttlfull_245_delta <= 0.879\ngini = 0.049\nsamples = 0.3%\nvalue = [0.975, 0.025]\nclass = unique", fillcolor="#e6843e"] ;
15 -> 69 ;
70 [label="ttlfull_245_delta <= 0.766\ngini = 0.024\nsamples = 0.3%\nvalue = [0.988, 0.012]\nclass = unique", fillcolor="#e5833b"] ;
69 -> 70 ;
71 [label="ttlfull_245_delta <= 0.766\ngini = 0.064\nsamples = 0.1%\nvalue = [0.967, 0.033]\nclass = unique", fillcolor="#e68540"] ;
70 -> 71 ;
72 [label="pubinit_delta <= -0.075\ngini = 0.033\nsamples = 0.1%\nvalue = [0.983, 0.017]\nclass = unique", fillcolor="#e5833c"] ;
71 -> 72 ;
73 [label="part_delta <= -0.075\ngini = 0.159\nsamples = 0.0%\nvalue = [0.913, 0.087]\nclass = unique", fillcolor="#e78d4c"] ;
72 -> 73 ;
74 [label="gini = 0.0\nsamples = 0.0%\nvalue = [1.0, 0.0]\nclass = unique", fillcolor="#e58139"] ;
73 -> 74 ;
75 [label="person_100_delta <= 0.475\ngini = 0.5\nsamples = 0.0%\nvalue = [0.5, 0.5]\nclass = unique", fillcolor="#ffffff"] ;
73 -> 75 ;
76 [label="gini = 0.0\nsamples = 0.0%\nvalue = [1.0, 0.0]\nclass = unique", fillcolor="#e58139"] ;
75 -> 76 ;
77 [label="gini = 0.0\nsamples = 0.0%\nvalue = [0.0, 1.0]\nclass = duplicate", fillcolor="#399de5"] ;
75 -> 77 ;
78 [label="gini = 0.0\nsamples = 0.1%\nvalue = [1.0, 0.0]\nclass = unique", fillcolor="#e58139"] ;
72 -> 78 ;
79 [label="gini = 0.0\nsamples = 0.0%\nvalue = [0.0, 1.0]\nclass = duplicate", fillcolor="#399de5"] ;
71 -> 79 ;
80 [label="ttlfull_245_delta <= 0.854\ngini = 0.007\nsamples = 0.2%\nvalue = [0.997, 0.003]\nclass = unique", fillcolor="#e5813a"] ;
70 -> 80 ;
81 [label="gini = 0.0\nsamples = 0.2%\nvalue = [1.0, 0.0]\nclass = unique", fillcolor="#e58139"] ;
80 -> 81 ;
82 [label="ttlfull_245_delta <= 0.855\ngini = 0.117\nsamples = 0.0%\nvalue = [0.938, 0.062]\nclass = unique", fillcolor="#e78946"] ;
80 -> 82 ;
83 [label="gini = 0.0\nsamples = 0.0%\nvalue = [0.0, 1.0]\nclass = duplicate", fillcolor="#399de5"] ;
82 -> 83 ;
84 [label="gini = 0.0\nsamples = 0.0%\nvalue = [1.0, 0.0]\nclass = unique", fillcolor="#e58139"] ;
82 -> 84 ;
85 [label="ttlfull_245_delta <= 0.882\ngini = 0.397\nsamples = 0.0%\nvalue = [0.727, 0.273]\nclass = unique", fillcolor="#efb083"] ;
69 -> 85 ;
86 [label="person_245c_delta <= 0.869\ngini = 0.32\nsamples = 0.0%\nvalue = [0.2, 0.8]\nclass = duplicate", fillcolor="#6ab6ec"] ;
85 -> 86 ;
87 [label="gini = 0.0\nsamples = 0.0%\nvalue = [0.0, 1.0]\nclass = duplicate", fillcolor="#399de5"] ;
86 -> 87 ;
88 [label="gini = 0.0\nsamples = 0.0%\nvalue = [1.0, 0.0]\nclass = unique", fillcolor="#e58139"] ;
86 -> 88 ;
89 [label="person_245c_delta <= 0.886\ngini = 0.208\nsamples = 0.0%\nvalue = [0.882, 0.118]\nclass = unique", fillcolor="#e89253"] ;
85 -> 89 ;
90 [label="gini = 0.0\nsamples = 0.0%\nvalue = [1.0, 0.0]\nclass = unique", fillcolor="#e58139"] ;
89 -> 90 ;
91 [label="musicid_delta <= -0.075\ngini = 0.48\nsamples = 0.0%\nvalue = [0.6, 0.4]\nclass = unique", fillcolor="#f6d5bd"] ;
89 -> 91 ;
92 [label="gini = 0.0\nsamples = 0.0%\nvalue = [1.0, 0.0]\nclass = unique", fillcolor="#e58139"] ;
91 -> 92 ;
93 [label="gini = 0.0\nsamples = 0.0%\nvalue = [0.0, 1.0]\nclass = duplicate", fillcolor="#399de5"] ;
91 -> 93 ;
94 [label="volumes_delta <= 0.878\ngini = 0.079\nsamples = 1.5%\nvalue = [0.959, 0.041]\nclass = unique", fillcolor="#e68641"] ;
4 -> 94 ;
95 [label="musicid_delta <= 0.414\ngini = 0.016\nsamples = 1.4%\nvalue = [0.992, 0.008]\nclass = unique", fillcolor="#e5823b"] ;
94 -> 95 ;
96 [label="pubinit_delta <= 0.842\ngini = 0.012\nsamples = 1.4%\nvalue = [0.994, 0.006]\nclass = unique", fillcolor="#e5823a"] ;
95 -> 96 ;
97 [label="ttlfull_245_delta <= 0.919\ngini = 0.004\nsamples = 1.3%\nvalue = [0.998, 0.002]\nclass = unique", fillcolor="#e58139"] ;
96 -> 97 ;
98 [label="person_700_delta <= 0.834\ngini = 0.002\nsamples = 1.3%\nvalue = [0.999, 0.001]\nclass = unique", fillcolor="#e58139"] ;
97 -> 98 ;
99 [label="gini = 0.0\nsamples = 1.3%\nvalue = [1.0, 0.0]\nclass = unique", fillcolor="#e58139"] ;
98 -> 99 ;
100 [label="ttlfull_246_delta <= -0.075\ngini = 0.1\nsamples = 0.0%\nvalue = [0.947, 0.053]\nclass = unique", fillcolor="#e68844"] ;
98 -> 100 ;
101 [label="volumes_delta <= 0.742\ngini = 0.053\nsamples = 0.0%\nvalue = [0.973, 0.027]\nclass = unique", fillcolor="#e6843e"] ;
100 -> 101 ;
102 [label="gini = 0.0\nsamples = 0.0%\nvalue = [1.0, 0.0]\nclass = unique", fillcolor="#e58139"] ;
101 -> 102 ;
103 [label="ttlfull_245_delta <= 0.769\ngini = 0.5\nsamples = 0.0%\nvalue = [0.5, 0.5]\nclass = unique", fillcolor="#ffffff"] ;
101 -> 103 ;
104 [label="gini = 0.0\nsamples = 0.0%\nvalue = [0.0, 1.0]\nclass = duplicate", fillcolor="#399de5"] ;
103 -> 104 ;
105 [label="gini = 0.0\nsamples = 0.0%\nvalue = [1.0, 0.0]\nclass = unique", fillcolor="#e58139"] ;
103 -> 105 ;
106 [label="gini = 0.0\nsamples = 0.0%\nvalue = [0.0, 1.0]\nclass = duplicate", fillcolor="#399de5"] ;
100 -> 106 ;
107 [label="volumes_delta <= 0.622\ngini = 0.32\nsamples = 0.0%\nvalue = [0.8, 0.2]\nclass = unique", fillcolor="#eca06a"] ;
97 -> 107 ;
108 [label="gini = 0.0\nsamples = 0.0%\nvalue = [1.0, 0.0]\nclass = unique", fillcolor="#e58139"] ;
107 -> 108 ;
109 [label="gini = 0.0\nsamples = 0.0%\nvalue = [0.0, 1.0]\nclass = duplicate", fillcolor="#399de5"] ;
107 -> 109 ;
110 [label="volumes_delta <= 0.689\ngini = 0.21\nsamples = 0.1%\nvalue = [0.881, 0.119]\nclass = unique", fillcolor="#e99254"] ;
96 -> 110 ;
111 [label="edition_delta <= 0.475\ngini = 0.104\nsamples = 0.0%\nvalue = [0.945, 0.055]\nclass = unique", fillcolor="#e78844"] ;
110 -> 111 ;
112 [label="person_245c_delta <= 0.237\ngini = 0.055\nsamples = 0.0%\nvalue = [0.972, 0.028]\nclass = unique", fillcolor="#e6853f"] ;
111 -> 112 ;
113 [label="ttlfull_245_delta <= 0.9\ngini = 0.408\nsamples = 0.0%\nvalue = [0.714, 0.286]\nclass = unique", fillcolor="#efb388"] ;
112 -> 113 ;
114 [label="gini = 0.0\nsamples = 0.0%\nvalue = [1.0, 0.0]\nclass = unique", fillcolor="#e58139"] ;
113 -> 114 ;
115 [label="ttlfull_245_delta <= 0.907\ngini = 0.444\nsamples = 0.0%\nvalue = [0.333, 0.667]\nclass = duplicate", fillcolor="#9ccef2"] ;
113 -> 115 ;
116 [label="gini = 0.0\nsamples = 0.0%\nvalue = [0.0, 1.0]\nclass = duplicate", fillcolor="#399de5"] ;
115 -> 116 ;
117 [label="gini = 0.0\nsamples = 0.0%\nvalue = [1.0, 0.0]\nclass = unique", fillcolor="#e58139"] ;
115 -> 117 ;
118 [label="gini = 0.0\nsamples = 0.0%\nvalue = [1.0, 0.0]\nclass = unique", fillcolor="#e58139"] ;
112 -> 118 ;
119 [label="gini = 0.0\nsamples = 0.0%\nvalue = [0.0, 1.0]\nclass = duplicate", fillcolor="#399de5"] ;
111 -> 119 ;
120 [label="volumes_delta <= 0.764\ngini = 0.496\nsamples = 0.0%\nvalue = [0.455, 0.545]\nclass = duplicate", fillcolor="#deeffb"] ;
110 -> 120 ;
121 [label="format_postfix_delta <= 0.714\ngini = 0.375\nsamples = 0.0%\nvalue = [0.25, 0.75]\nclass = duplicate", fillcolor="#7bbeee"] ;
120 -> 121 ;
122 [label="gini = 0.0\nsamples = 0.0%\nvalue = [1.0, 0.0]\nclass = unique", fillcolor="#e58139"] ;
121 -> 122 ;
123 [label="musicid_delta <= 0.046\ngini = 0.245\nsamples = 0.0%\nvalue = [0.143, 0.857]\nclass = duplicate", fillcolor="#5aade9"] ;
121 -> 123 ;
124 [label="gini = 0.0\nsamples = 0.0%\nvalue = [0.0, 1.0]\nclass = duplicate", fillcolor="#399de5"] ;
123 -> 124 ;
125 [label="gini = 0.0\nsamples = 0.0%\nvalue = [1.0, 0.0]\nclass = unique", fillcolor="#e58139"] ;
123 -> 125 ;
126 [label="gini = 0.0\nsamples = 0.0%\nvalue = [1.0, 0.0]\nclass = unique", fillcolor="#e58139"] ;
120 -> 126 ;
127 [label="gini = 0.0\nsamples = 0.0%\nvalue = [0.0, 1.0]\nclass = duplicate", fillcolor="#399de5"] ;
95 -> 127 ;
128 [label="person_245c_delta <= 0.706\ngini = 0.495\nsamples = 0.1%\nvalue = [0.549, 0.451]\nclass = unique", fillcolor="#fae9dc"] ;
94 -> 128 ;
129 [label="ttlfull_245_delta <= 0.738\ngini = 0.32\nsamples = 0.1%\nvalue = [0.8, 0.2]\nclass = unique", fillcolor="#eca06a"] ;
128 -> 129 ;
130 [label="gini = 0.0\nsamples = 0.0%\nvalue = [1.0, 0.0]\nclass = unique", fillcolor="#e58139"] ;
129 -> 130 ;
131 [label="pubinit_delta <= 0.64\ngini = 0.5\nsamples = 0.0%\nvalue = [0.5, 0.5]\nclass = unique", fillcolor="#ffffff"] ;
129 -> 131 ;
132 [label="person_700_delta <= 0.22\ngini = 0.384\nsamples = 0.0%\nvalue = [0.741, 0.259]\nclass = unique", fillcolor="#eead7e"] ;
131 -> 132 ;
133 [label="gini = 0.0\nsamples = 0.0%\nvalue = [1.0, 0.0]\nclass = unique", fillcolor="#e58139"] ;
132 -> 133 ;
134 [label="part_delta <= 0.297\ngini = 0.346\nsamples = 0.0%\nvalue = [0.222, 0.778]\nclass = duplicate", fillcolor="#72b9ec"] ;
132 -> 134 ;
135 [label="ttlfull_245_delta <= 0.894\ngini = 0.219\nsamples = 0.0%\nvalue = [0.125, 0.875]\nclass = duplicate", fillcolor="#55abe9"] ;
134 -> 135 ;
136 [label="gini = 0.0\nsamples = 0.0%\nvalue = [0.0, 1.0]\nclass = duplicate", fillcolor="#399de5"] ;
135 -> 136 ;
137 [label="gini = 0.0\nsamples = 0.0%\nvalue = [1.0, 0.0]\nclass = unique", fillcolor="#e58139"] ;
135 -> 137 ;
138 [label="gini = 0.0\nsamples = 0.0%\nvalue = [1.0, 0.0]\nclass = unique", fillcolor="#e58139"] ;
134 -> 138 ;
139 [label="person_700_delta <= 0.856\ngini = 0.208\nsamples = 0.0%\nvalue = [0.118, 0.882]\nclass = duplicate", fillcolor="#53aae8"] ;
131 -> 139 ;
140 [label="gini = 0.0\nsamples = 0.0%\nvalue = [0.0, 1.0]\nclass = duplicate", fillcolor="#399de5"] ;
139 -> 140 ;
141 [label="gini = 0.0\nsamples = 0.0%\nvalue = [1.0, 0.0]\nclass = unique", fillcolor="#e58139"] ;
139 -> 141 ;
142 [label="format_postfix_delta <= 0.714\ngini = 0.29\nsamples = 0.0%\nvalue = [0.176, 0.824]\nclass = duplicate", fillcolor="#63b2eb"] ;
128 -> 142 ;
143 [label="gini = 0.0\nsamples = 0.0%\nvalue = [1.0, 0.0]\nclass = unique", fillcolor="#e58139"] ;
142 -> 143 ;
144 [label="person_245c_delta <= 0.807\ngini = 0.224\nsamples = 0.0%\nvalue = [0.129, 0.871]\nclass = duplicate", fillcolor="#56abe9"] ;
142 -> 144 ;
145 [label="person_245c_delta <= 0.748\ngini = 0.404\nsamples = 0.0%\nvalue = [0.281, 0.719]\nclass = duplicate", fillcolor="#86c3ef"] ;
144 -> 145 ;
146 [label="ttlfull_245_delta <= 0.879\ngini = 0.18\nsamples = 0.0%\nvalue = [0.1, 0.9]\nclass = duplicate", fillcolor="#4fa8e8"] ;
145 -> 146 ;
147 [label="musicid_delta <= -0.075\ngini = 0.1\nsamples = 0.0%\nvalue = [0.053, 0.947]\nclass = duplicate", fillcolor="#44a2e6"] ;
146 -> 147 ;
148 [label="gini = 0.0\nsamples = 0.0%\nvalue = [0.0, 1.0]\nclass = duplicate", fillcolor="#399de5"] ;
147 -> 148 ;
149 [label="musicid_delta <= 0.189\ngini = 0.5\nsamples = 0.0%\nvalue = [0.5, 0.5]\nclass = unique", fillcolor="#ffffff"] ;
147 -> 149 ;
150 [label="gini = 0.0\nsamples = 0.0%\nvalue = [1.0, 0.0]\nclass = unique", fillcolor="#e58139"] ;
149 -> 150 ;
151 [label="gini = 0.0\nsamples = 0.0%\nvalue = [0.0, 1.0]\nclass = duplicate", fillcolor="#399de5"] ;
149 -> 151 ;
152 [label="gini = 0.0\nsamples = 0.0%\nvalue = [1.0, 0.0]\nclass = unique", fillcolor="#e58139"] ;
146 -> 152 ;
153 [label="person_245c_delta <= 0.752\ngini = 0.486\nsamples = 0.0%\nvalue = [0.583, 0.417]\nclass = unique", fillcolor="#f8dbc6"] ;
145 -> 153 ;
154 [label="gini = 0.0\nsamples = 0.0%\nvalue = [1.0, 0.0]\nclass = unique", fillcolor="#e58139"] ;
153 -> 154 ;
155 [label="ttlfull_245_delta <= 0.81\ngini = 0.408\nsamples = 0.0%\nvalue = [0.286, 0.714]\nclass = duplicate", fillcolor="#88c4ef"] ;
153 -> 155 ;
156 [label="gini = 0.0\nsamples = 0.0%\nvalue = [1.0, 0.0]\nclass = unique", fillcolor="#e58139"] ;
155 -> 156 ;
157 [label="person_100_delta <= -0.075\ngini = 0.278\nsamples = 0.0%\nvalue = [0.167, 0.833]\nclass = duplicate", fillcolor="#61b1ea"] ;
155 -> 157 ;
158 [label="gini = 0.0\nsamples = 0.0%\nvalue = [1.0, 0.0]\nclass = unique", fillcolor="#e58139"] ;
157 -> 158 ;
159 [label="gini = 0.0\nsamples = 0.0%\nvalue = [0.0, 1.0]\nclass = duplicate", fillcolor="#399de5"] ;
157 -> 159 ;
160 [label="gini = 0.0\nsamples = 0.0%\nvalue = [0.0, 1.0]\nclass = duplicate", fillcolor="#399de5"] ;
144 -> 160 ;
161 [label="exactDate_delta <= 0.688\ngini = 0.363\nsamples = 0.1%\nvalue = [0.762, 0.238]\nclass = unique", fillcolor="#eda877"] ;
3 -> 161 ;
162 [label="ttlfull_246_delta <= -0.075\ngini = 0.209\nsamples = 0.1%\nvalue = [0.882, 0.118]\nclass = unique", fillcolor="#e89254"] ;
161 -> 162 ;
163 [label="person_700_delta <= 0.938\ngini = 0.069\nsamples = 0.1%\nvalue = [0.964, 0.036]\nclass = unique", fillcolor="#e68640"] ;
162 -> 163 ;
164 [label="ttlfull_245_delta <= 0.641\ngini = 0.025\nsamples = 0.0%\nvalue = [0.988, 0.012]\nclass = unique", fillcolor="#e5833c"] ;
163 -> 164 ;
165 [label="format_postfix_delta <= 0.714\ngini = 0.5\nsamples = 0.0%\nvalue = [0.5, 0.5]\nclass = unique", fillcolor="#ffffff"] ;
164 -> 165 ;
166 [label="gini = 0.0\nsamples = 0.0%\nvalue = [1.0, 0.0]\nclass = unique", fillcolor="#e58139"] ;
165 -> 166 ;
167 [label="gini = 0.0\nsamples = 0.0%\nvalue = [0.0, 1.0]\nclass = duplicate", fillcolor="#399de5"] ;
165 -> 167 ;
168 [label="gini = 0.0\nsamples = 0.0%\nvalue = [1.0, 0.0]\nclass = unique", fillcolor="#e58139"] ;
164 -> 168 ;
169 [label="pubinit_delta <= 0.764\ngini = 0.5\nsamples = 0.0%\nvalue = [0.5, 0.5]\nclass = unique", fillcolor="#ffffff"] ;
163 -> 169 ;
170 [label="gini = 0.0\nsamples = 0.0%\nvalue = [1.0, 0.0]\nclass = unique", fillcolor="#e58139"] ;
169 -> 170 ;
171 [label="gini = 0.0\nsamples = 0.0%\nvalue = [0.0, 1.0]\nclass = duplicate", fillcolor="#399de5"] ;
169 -> 171 ;
172 [label="format_postfix_delta <= 0.714\ngini = 0.198\nsamples = 0.0%\nvalue = [0.111, 0.889]\nclass = duplicate", fillcolor="#52a9e8"] ;
162 -> 172 ;
173 [label="gini = 0.0\nsamples = 0.0%\nvalue = [1.0, 0.0]\nclass = unique", fillcolor="#e58139"] ;
172 -> 173 ;
174 [label="gini = 0.0\nsamples = 0.0%\nvalue = [0.0, 1.0]\nclass = duplicate", fillcolor="#399de5"] ;
172 -> 174 ;
175 [label="part_delta <= -0.075\ngini = 0.497\nsamples = 0.0%\nvalue = [0.459, 0.541]\nclass = duplicate", fillcolor="#e1f0fb"] ;
161 -> 175 ;
176 [label="ttlfull_245_delta <= 0.845\ngini = 0.32\nsamples = 0.0%\nvalue = [0.2, 0.8]\nclass = duplicate", fillcolor="#6ab6ec"] ;
175 -> 176 ;
177 [label="ttlfull_245_delta <= 0.792\ngini = 0.48\nsamples = 0.0%\nvalue = [0.4, 0.6]\nclass = duplicate", fillcolor="#bddef6"] ;
176 -> 177 ;
178 [label="format_postfix_delta <= 0.714\ngini = 0.245\nsamples = 0.0%\nvalue = [0.143, 0.857]\nclass = duplicate", fillcolor="#5aade9"] ;
177 -> 178 ;
179 [label="gini = 0.0\nsamples = 0.0%\nvalue = [1.0, 0.0]\nclass = unique", fillcolor="#e58139"] ;
178 -> 179 ;
180 [label="gini = 0.0\nsamples = 0.0%\nvalue = [0.0, 1.0]\nclass = duplicate", fillcolor="#399de5"] ;
178 -> 180 ;
181 [label="gini = 0.0\nsamples = 0.0%\nvalue = [1.0, 0.0]\nclass = unique", fillcolor="#e58139"] ;
177 -> 181 ;
182 [label="gini = 0.0\nsamples = 0.0%\nvalue = [0.0, 1.0]\nclass = duplicate", fillcolor="#399de5"] ;
176 -> 182 ;
183 [label="volumes_delta <= 0.756\ngini = 0.36\nsamples = 0.0%\nvalue = [0.765, 0.235]\nclass = unique", fillcolor="#eda876"] ;
175 -> 183 ;
184 [label="gini = 0.0\nsamples = 0.0%\nvalue = [1.0, 0.0]\nclass = unique", fillcolor="#e58139"] ;
183 -> 184 ;
185 [label="volumes_delta <= 0.889\ngini = 0.49\nsamples = 0.0%\nvalue = [0.429, 0.571]\nclass = duplicate", fillcolor="#cee6f8"] ;
183 -> 185 ;
186 [label="gini = 0.0\nsamples = 0.0%\nvalue = [0.0, 1.0]\nclass = duplicate", fillcolor="#399de5"] ;
185 -> 186 ;
187 [label="ttlfull_245_delta <= 0.782\ngini = 0.48\nsamples = 0.0%\nvalue = [0.6, 0.4]\nclass = unique", fillcolor="#f6d5bd"] ;
185 -> 187 ;
188 [label="gini = 0.0\nsamples = 0.0%\nvalue = [1.0, 0.0]\nclass = unique", fillcolor="#e58139"] ;
187 -> 188 ;
189 [label="gini = 0.0\nsamples = 0.0%\nvalue = [0.0, 1.0]\nclass = duplicate", fillcolor="#399de5"] ;
187 -> 189 ;
190 [label="person_100_delta <= -0.075\ngini = 0.408\nsamples = 0.0%\nvalue = [0.286, 0.714]\nclass = duplicate", fillcolor="#88c4ef"] ;
2 -> 190 ;
191 [label="gini = 0.0\nsamples = 0.0%\nvalue = [0.0, 1.0]\nclass = duplicate", fillcolor="#399de5"] ;
190 -> 191 ;
192 [label="musicid_delta <= 0.625\ngini = 0.245\nsamples = 0.0%\nvalue = [0.857, 0.143]\nclass = unique", fillcolor="#e9965a"] ;
190 -> 192 ;
193 [label="gini = 0.0\nsamples = 0.0%\nvalue = [1.0, 0.0]\nclass = unique", fillcolor="#e58139"] ;
192 -> 193 ;
194 [label="gini = 0.0\nsamples = 0.0%\nvalue = [0.0, 1.0]\nclass = duplicate", fillcolor="#399de5"] ;
192 -> 194 ;
195 [label="format_postfix_delta <= 0.714\ngini = 0.391\nsamples = 0.0%\nvalue = [0.267, 0.733]\nclass = duplicate", fillcolor="#81c1ee"] ;
1 -> 195 ;
196 [label="gini = 0.0\nsamples = 0.0%\nvalue = [1.0, 0.0]\nclass = unique", fillcolor="#e58139"] ;
195 -> 196 ;
197 [label="ttlfull_245_delta <= 0.706\ngini = 0.193\nsamples = 0.0%\nvalue = [0.108, 0.892]\nclass = duplicate", fillcolor="#51a9e8"] ;
195 -> 197 ;
198 [label="gini = 0.0\nsamples = 0.0%\nvalue = [1.0, 0.0]\nclass = unique", fillcolor="#e58139"] ;
197 -> 198 ;
199 [label="person_245c_delta <= 0.618\ngini = 0.057\nsamples = 0.0%\nvalue = [0.029, 0.971]\nclass = duplicate", fillcolor="#3fa0e6"] ;
197 -> 199 ;
200 [label="person_245c_delta <= 0.588\ngini = 0.444\nsamples = 0.0%\nvalue = [0.333, 0.667]\nclass = duplicate", fillcolor="#9ccef2"] ;
199 -> 200 ;
201 [label="gini = 0.0\nsamples = 0.0%\nvalue = [0.0, 1.0]\nclass = duplicate", fillcolor="#399de5"] ;
200 -> 201 ;
202 [label="gini = 0.0\nsamples = 0.0%\nvalue = [1.0, 0.0]\nclass = unique", fillcolor="#e58139"] ;
200 -> 202 ;
203 [label="gini = 0.0\nsamples = 0.0%\nvalue = [0.0, 1.0]\nclass = duplicate", fillcolor="#399de5"] ;
199 -> 203 ;
204 [label="exactDate_delta <= 0.719\ngini = 0.464\nsamples = 1.2%\nvalue = [0.634, 0.366]\nclass = unique", fillcolor="#f4caab"] ;
0 -> 204 [labeldistance=2.5, labelangle=-45, headlabel="False"] ;
205 [label="musicid_delta <= 0.833\ngini = 0.041\nsamples = 0.7%\nvalue = [0.979, 0.021]\nclass = unique", fillcolor="#e6843d"] ;
204 -> 205 ;
206 [label="volumes_delta <= -0.075\ngini = 0.032\nsamples = 0.7%\nvalue = [0.984, 0.016]\nclass = unique", fillcolor="#e5833c"] ;
205 -> 206 ;
207 [label="person_245c_delta <= -0.075\ngini = 0.496\nsamples = 0.0%\nvalue = [0.545, 0.455]\nclass = unique", fillcolor="#fbeade"] ;
206 -> 207 ;
208 [label="gini = 0.0\nsamples = 0.0%\nvalue = [0.0, 1.0]\nclass = duplicate", fillcolor="#399de5"] ;
207 -> 208 ;
209 [label="person_245c_delta <= 0.881\ngini = 0.245\nsamples = 0.0%\nvalue = [0.857, 0.143]\nclass = unique", fillcolor="#e9965a"] ;
207 -> 209 ;
210 [label="gini = 0.0\nsamples = 0.0%\nvalue = [1.0, 0.0]\nclass = unique", fillcolor="#e58139"] ;
209 -> 210 ;
211 [label="gini = 0.0\nsamples = 0.0%\nvalue = [0.0, 1.0]\nclass = duplicate", fillcolor="#399de5"] ;
209 -> 211 ;
212 [label="person_700_delta <= 0.981\ngini = 0.024\nsamples = 0.7%\nvalue = [0.988, 0.012]\nclass = unique", fillcolor="#e5833b"] ;
206 -> 212 ;
213 [label="person_245c_delta <= 0.176\ngini = 0.011\nsamples = 0.6%\nvalue = [0.994, 0.006]\nclass = unique", fillcolor="#e5823a"] ;
212 -> 213 ;
214 [label="pubinit_delta <= 0.989\ngini = 0.055\nsamples = 0.1%\nvalue = [0.972, 0.028]\nclass = unique", fillcolor="#e6853f"] ;
213 -> 214 ;
215 [label="pubinit_delta <= -0.025\ngini = 0.038\nsamples = 0.1%\nvalue = [0.98, 0.02]\nclass = unique", fillcolor="#e6843d"] ;
214 -> 215 ;
216 [label="exactDate_delta <= 0.438\ngini = 0.114\nsamples = 0.0%\nvalue = [0.939, 0.061]\nclass = unique", fillcolor="#e78946"] ;
215 -> 216 ;
217 [label="gini = 0.0\nsamples = 0.0%\nvalue = [1.0, 0.0]\nclass = unique", fillcolor="#e58139"] ;
216 -> 217 ;
218 [label="part_delta <= -0.075\ngini = 0.245\nsamples = 0.0%\nvalue = [0.857, 0.143]\nclass = unique", fillcolor="#e9965a"] ;
216 -> 218 ;
219 [label="person_700_delta <= -0.075\ngini = 0.444\nsamples = 0.0%\nvalue = [0.667, 0.333]\nclass = unique", fillcolor="#f2c09c"] ;
218 -> 219 ;
220 [label="gini = 0.0\nsamples = 0.0%\nvalue = [1.0, 0.0]\nclass = unique", fillcolor="#e58139"] ;
219 -> 220 ;
221 [label="gini = 0.0\nsamples = 0.0%\nvalue = [0.0, 1.0]\nclass = duplicate", fillcolor="#399de5"] ;
219 -> 221 ;
222 [label="gini = 0.0\nsamples = 0.0%\nvalue = [1.0, 0.0]\nclass = unique", fillcolor="#e58139"] ;
218 -> 222 ;
223 [label="gini = 0.0\nsamples = 0.0%\nvalue = [1.0, 0.0]\nclass = unique", fillcolor="#e58139"] ;
215 -> 223 ;
224 [label="exactDate_delta <= 0.562\ngini = 0.32\nsamples = 0.0%\nvalue = [0.8, 0.2]\nclass = unique", fillcolor="#eca06a"] ;
214 -> 224 ;
225 [label="gini = 0.0\nsamples = 0.0%\nvalue = [0.0, 1.0]\nclass = duplicate", fillcolor="#399de5"] ;
224 -> 225 ;
226 [label="gini = 0.0\nsamples = 0.0%\nvalue = [1.0, 0.0]\nclass = unique", fillcolor="#e58139"] ;
224 -> 226 ;
227 [label="person_700_delta <= 0.845\ngini = 0.006\nsamples = 0.6%\nvalue = [0.997, 0.003]\nclass = unique", fillcolor="#e5813a"] ;
213 -> 227 ;
228 [label="volumes_delta <= 0.944\ngini = 0.002\nsamples = 0.5%\nvalue = [0.999, 0.001]\nclass = unique", fillcolor="#e58139"] ;
227 -> 228 ;
229 [label="gini = 0.0\nsamples = 0.5%\nvalue = [1.0, 0.0]\nclass = unique", fillcolor="#e58139"] ;
228 -> 229 ;
230 [label="pubinit_delta <= -0.075\ngini = 0.04\nsamples = 0.0%\nvalue = [0.98, 0.02]\nclass = unique", fillcolor="#e6843d"] ;
228 -> 230 ;
231 [label="person_700_delta <= -0.075\ngini = 0.198\nsamples = 0.0%\nvalue = [0.889, 0.111]\nclass = unique", fillcolor="#e89152"] ;
230 -> 231 ;
232 [label="gini = 0.0\nsamples = 0.0%\nvalue = [0.0, 1.0]\nclass = duplicate", fillcolor="#399de5"] ;
231 -> 232 ;
233 [label="gini = 0.0\nsamples = 0.0%\nvalue = [1.0, 0.0]\nclass = unique", fillcolor="#e58139"] ;
231 -> 233 ;
234 [label="gini = 0.0\nsamples = 0.0%\nvalue = [1.0, 0.0]\nclass = unique", fillcolor="#e58139"] ;
230 -> 234 ;
235 [label="person_700_delta <= 0.849\ngini = 0.03\nsamples = 0.1%\nvalue = [0.985, 0.015]\nclass = unique", fillcolor="#e5833c"] ;
227 -> 235 ;
236 [label="gini = 0.0\nsamples = 0.0%\nvalue = [0.0, 1.0]\nclass = duplicate", fillcolor="#399de5"] ;
235 -> 236 ;
237 [label="ttlfull_245_delta <= 0.995\ngini = 0.015\nsamples = 0.1%\nvalue = [0.992, 0.008]\nclass = unique", fillcolor="#e5823b"] ;
235 -> 237 ;
238 [label="musicid_delta <= 0.05\ngini = 0.444\nsamples = 0.0%\nvalue = [0.667, 0.333]\nclass = unique", fillcolor="#f2c09c"] ;
237 -> 238 ;
239 [label="gini = 0.0\nsamples = 0.0%\nvalue = [0.0, 1.0]\nclass = duplicate", fillcolor="#399de5"] ;
238 -> 239 ;
240 [label="gini = 0.0\nsamples = 0.0%\nvalue = [1.0, 0.0]\nclass = unique", fillcolor="#e58139"] ;
238 -> 240 ;
241 [label="gini = 0.0\nsamples = 0.1%\nvalue = [1.0, 0.0]\nclass = unique", fillcolor="#e58139"] ;
237 -> 241 ;
242 [label="volumes_delta <= 0.889\ngini = 0.153\nsamples = 0.1%\nvalue = [0.917, 0.083]\nclass = unique", fillcolor="#e78c4b"] ;
212 -> 242 ;
243 [label="gini = 0.0\nsamples = 0.0%\nvalue = [1.0, 0.0]\nclass = unique", fillcolor="#e58139"] ;
242 -> 243 ;
244 [label="isbn_delta <= 0.5\ngini = 0.36\nsamples = 0.0%\nvalue = [0.765, 0.235]\nclass = unique", fillcolor="#eda876"] ;
242 -> 244 ;
245 [label="gini = 0.0\nsamples = 0.0%\nvalue = [1.0, 0.0]\nclass = unique", fillcolor="#e58139"] ;
244 -> 245 ;
246 [label="person_100_delta <= 0.45\ngini = 0.488\nsamples = 0.0%\nvalue = [0.579, 0.421]\nclass = unique", fillcolor="#f8ddc9"] ;
244 -> 246 ;
247 [label="gini = 0.0\nsamples = 0.0%\nvalue = [1.0, 0.0]\nclass = unique", fillcolor="#e58139"] ;
246 -> 247 ;
248 [label="exactDate_delta <= 0.562\ngini = 0.473\nsamples = 0.0%\nvalue = [0.385, 0.615]\nclass = duplicate", fillcolor="#b5daf5"] ;
246 -> 248 ;
249 [label="exactDate_delta <= 0.375\ngini = 0.245\nsamples = 0.0%\nvalue = [0.143, 0.857]\nclass = duplicate", fillcolor="#5aade9"] ;
248 -> 249 ;
250 [label="gini = 0.0\nsamples = 0.0%\nvalue = [1.0, 0.0]\nclass = unique", fillcolor="#e58139"] ;
249 -> 250 ;
251 [label="gini = 0.0\nsamples = 0.0%\nvalue = [0.0, 1.0]\nclass = duplicate", fillcolor="#399de5"] ;
249 -> 251 ;
252 [label="pubinit_delta <= -0.075\ngini = 0.444\nsamples = 0.0%\nvalue = [0.667, 0.333]\nclass = unique", fillcolor="#f2c09c"] ;
248 -> 252 ;
253 [label="edition_delta <= -0.075\ngini = 0.444\nsamples = 0.0%\nvalue = [0.333, 0.667]\nclass = duplicate", fillcolor="#9ccef2"] ;
252 -> 253 ;
254 [label="gini = 0.0\nsamples = 0.0%\nvalue = [0.0, 1.0]\nclass = duplicate", fillcolor="#399de5"] ;
253 -> 254 ;
255 [label="gini = 0.0\nsamples = 0.0%\nvalue = [1.0, 0.0]\nclass = unique", fillcolor="#e58139"] ;
253 -> 255 ;
256 [label="gini = 0.0\nsamples = 0.0%\nvalue = [1.0, 0.0]\nclass = unique", fillcolor="#e58139"] ;
252 -> 256 ;
257 [label="ttlfull_246_delta <= 0.45\ngini = 0.49\nsamples = 0.0%\nvalue = [0.571, 0.429]\nclass = unique", fillcolor="#f8e0ce"] ;
205 -> 257 ;
258 [label="person_700_delta <= 0.913\ngini = 0.198\nsamples = 0.0%\nvalue = [0.889, 0.111]\nclass = unique", fillcolor="#e89152"] ;
257 -> 258 ;
259 [label="gini = 0.0\nsamples = 0.0%\nvalue = [1.0, 0.0]\nclass = unique", fillcolor="#e58139"] ;
258 -> 259 ;
260 [label="gini = 0.0\nsamples = 0.0%\nvalue = [0.0, 1.0]\nclass = duplicate", fillcolor="#399de5"] ;
258 -> 260 ;
261 [label="gini = 0.0\nsamples = 0.0%\nvalue = [0.0, 1.0]\nclass = duplicate", fillcolor="#399de5"] ;
257 -> 261 ;
262 [label="format_postfix_delta <= 0.714\ngini = 0.227\nsamples = 0.5%\nvalue = [0.131, 0.869]\nclass = duplicate", fillcolor="#57ace9"] ;
204 -> 262 ;
263 [label="person_700_delta <= -0.075\ngini = 0.392\nsamples = 0.0%\nvalue = [0.732, 0.268]\nclass = unique", fillcolor="#efaf81"] ;
262 -> 263 ;
264 [label="volumes_delta <= 0.256\ngini = 0.42\nsamples = 0.0%\nvalue = [0.3, 0.7]\nclass = duplicate", fillcolor="#8ec7f0"] ;
263 -> 264 ;
265 [label="person_245c_delta <= 0.347\ngini = 0.444\nsamples = 0.0%\nvalue = [0.667, 0.333]\nclass = unique", fillcolor="#f2c09c"] ;
264 -> 265 ;
266 [label="gini = 0.0\nsamples = 0.0%\nvalue = [0.0, 1.0]\nclass = duplicate", fillcolor="#399de5"] ;
265 -> 266 ;
267 [label="gini = 0.0\nsamples = 0.0%\nvalue = [1.0, 0.0]\nclass = unique", fillcolor="#e58139"] ;
265 -> 267 ;
268 [label="gini = 0.0\nsamples = 0.0%\nvalue = [0.0, 1.0]\nclass = duplicate", fillcolor="#399de5"] ;
264 -> 268 ;
269 [label="part_delta <= 0.331\ngini = 0.054\nsamples = 0.0%\nvalue = [0.972, 0.028]\nclass = unique", fillcolor="#e6853f"] ;
263 -> 269 ;
270 [label="gini = 0.0\nsamples = 0.0%\nvalue = [1.0, 0.0]\nclass = unique", fillcolor="#e58139"] ;
269 -> 270 ;
271 [label="gini = 0.0\nsamples = 0.0%\nvalue = [0.0, 1.0]\nclass = duplicate", fillcolor="#399de5"] ;
269 -> 271 ;
272 [label="volumes_delta <= 0.933\ngini = 0.158\nsamples = 0.5%\nvalue = [0.087, 0.913]\nclass = duplicate", fillcolor="#4ca6e7"] ;
262 -> 272 ;
273 [label="volumes_delta <= -0.025\ngini = 0.387\nsamples = 0.1%\nvalue = [0.262, 0.738]\nclass = duplicate", fillcolor="#7fc0ee"] ;
272 -> 273 ;
274 [label="ttlfull_245_delta <= 0.984\ngini = 0.104\nsamples = 0.0%\nvalue = [0.055, 0.945]\nclass = duplicate", fillcolor="#44a3e7"] ;
273 -> 274 ;
275 [label="pubinit_delta <= 0.831\ngini = 0.5\nsamples = 0.0%\nvalue = [0.5, 0.5]\nclass = unique", fillcolor="#ffffff"] ;
274 -> 275 ;
276 [label="gini = 0.0\nsamples = 0.0%\nvalue = [0.0, 1.0]\nclass = duplicate", fillcolor="#399de5"] ;
275 -> 276 ;
277 [label="gini = 0.0\nsamples = 0.0%\nvalue = [1.0, 0.0]\nclass = unique", fillcolor="#e58139"] ;
275 -> 277 ;
278 [label="isbn_delta <= 0.5\ngini = 0.056\nsamples = 0.0%\nvalue = [0.029, 0.971]\nclass = duplicate", fillcolor="#3fa0e6"] ;
274 -> 278 ;
279 [label="pubinit_delta <= 0.475\ngini = 0.444\nsamples = 0.0%\nvalue = [0.333, 0.667]\nclass = duplicate", fillcolor="#9ccef2"] ;
278 -> 279 ;
280 [label="person_700_delta <= -0.075\ngini = 0.444\nsamples = 0.0%\nvalue = [0.667, 0.333]\nclass = unique", fillcolor="#f2c09c"] ;
279 -> 280 ;
281 [label="gini = 0.0\nsamples = 0.0%\nvalue = [1.0, 0.0]\nclass = unique", fillcolor="#e58139"] ;
280 -> 281 ;
282 [label="person_245c_delta <= 0.809\ngini = 0.5\nsamples = 0.0%\nvalue = [0.5, 0.5]\nclass = unique", fillcolor="#ffffff"] ;
280 -> 282 ;
283 [label="gini = 0.0\nsamples = 0.0%\nvalue = [0.0, 1.0]\nclass = duplicate", fillcolor="#399de5"] ;
282 -> 283 ;
284 [label="gini = 0.0\nsamples = 0.0%\nvalue = [1.0, 0.0]\nclass = unique", fillcolor="#e58139"] ;
282 -> 284 ;
285 [label="gini = 0.0\nsamples = 0.0%\nvalue = [0.0, 1.0]\nclass = duplicate", fillcolor="#399de5"] ;
279 -> 285 ;
286 [label="gini = 0.0\nsamples = 0.0%\nvalue = [0.0, 1.0]\nclass = duplicate", fillcolor="#399de5"] ;
278 -> 286 ;
287 [label="volumes_delta <= 0.643\ngini = 0.49\nsamples = 0.1%\nvalue = [0.429, 0.571]\nclass = duplicate", fillcolor="#cee6f8"] ;
273 -> 287 ;
288 [label="person_100_delta <= 0.475\ngini = 0.444\nsamples = 0.0%\nvalue = [0.667, 0.333]\nclass = unique", fillcolor="#f2c09c"] ;
287 -> 288 ;
289 [label="gini = 0.0\nsamples = 0.0%\nvalue = [1.0, 0.0]\nclass = unique", fillcolor="#e58139"] ;
288 -> 289 ;
290 [label="isbn_delta <= 0.5\ngini = 0.493\nsamples = 0.0%\nvalue = [0.44, 0.56]\nclass = duplicate", fillcolor="#d5eaf9"] ;
288 -> 290 ;
291 [label="gini = 0.0\nsamples = 0.0%\nvalue = [1.0, 0.0]\nclass = unique", fillcolor="#e58139"] ;
290 -> 291 ;
292 [label="person_700_delta <= -0.075\ngini = 0.124\nsamples = 0.0%\nvalue = [0.067, 0.933]\nclass = duplicate", fillcolor="#47a4e7"] ;
290 -> 292 ;
293 [label="gini = 0.0\nsamples = 0.0%\nvalue = [1.0, 0.0]\nclass = unique", fillcolor="#e58139"] ;
292 -> 293 ;
294 [label="gini = 0.0\nsamples = 0.0%\nvalue = [0.0, 1.0]\nclass = duplicate", fillcolor="#399de5"] ;
292 -> 294 ;
295 [label="volumes_delta <= 0.822\ngini = 0.348\nsamples = 0.0%\nvalue = [0.224, 0.776]\nclass = duplicate", fillcolor="#72b9ed"] ;
287 -> 295 ;
296 [label="person_700_delta <= -0.075\ngini = 0.206\nsamples = 0.0%\nvalue = [0.116, 0.884]\nclass = duplicate", fillcolor="#53aae8"] ;
295 -> 296 ;
297 [label="gini = 0.0\nsamples = 0.0%\nvalue = [1.0, 0.0]\nclass = unique", fillcolor="#e58139"] ;
296 -> 297 ;
298 [label="ttlfull_245_delta <= 0.981\ngini = 0.136\nsamples = 0.0%\nvalue = [0.073, 0.927]\nclass = duplicate", fillcolor="#49a5e7"] ;
296 -> 298 ;
299 [label="gini = 0.0\nsamples = 0.0%\nvalue = [1.0, 0.0]\nclass = unique", fillcolor="#e58139"] ;
298 -> 299 ;
300 [label="person_245c_delta <= 0.871\ngini = 0.095\nsamples = 0.0%\nvalue = [0.05, 0.95]\nclass = duplicate", fillcolor="#43a2e6"] ;
298 -> 300 ;
301 [label="gini = 0.0\nsamples = 0.0%\nvalue = [0.0, 1.0]\nclass = duplicate", fillcolor="#399de5"] ;
300 -> 301 ;
302 [label="musicid_delta <= -0.075\ngini = 0.346\nsamples = 0.0%\nvalue = [0.222, 0.778]\nclass = duplicate", fillcolor="#72b9ec"] ;
300 -> 302 ;
303 [label="person_700_delta <= 0.475\ngini = 0.444\nsamples = 0.0%\nvalue = [0.667, 0.333]\nclass = unique", fillcolor="#f2c09c"] ;
302 -> 303 ;
304 [label="gini = 0.0\nsamples = 0.0%\nvalue = [1.0, 0.0]\nclass = unique", fillcolor="#e58139"] ;
303 -> 304 ;
305 [label="gini = 0.0\nsamples = 0.0%\nvalue = [0.0, 1.0]\nclass = duplicate", fillcolor="#399de5"] ;
303 -> 305 ;
306 [label="gini = 0.0\nsamples = 0.0%\nvalue = [0.0, 1.0]\nclass = duplicate", fillcolor="#399de5"] ;
302 -> 306 ;
307 [label="gini = 0.0\nsamples = 0.0%\nvalue = [1.0, 0.0]\nclass = unique", fillcolor="#e58139"] ;
295 -> 307 ;
308 [label="person_245c_delta <= 0.9\ngini = 0.074\nsamples = 0.4%\nvalue = [0.038, 0.962]\nclass = duplicate", fillcolor="#41a1e6"] ;
272 -> 308 ;
309 [label="doi_delta <= -0.075\ngini = 0.175\nsamples = 0.1%\nvalue = [0.097, 0.903]\nclass = duplicate", fillcolor="#4ea8e8"] ;
308 -> 309 ;
310 [label="person_245c_delta <= 0.899\ngini = 0.16\nsamples = 0.1%\nvalue = [0.088, 0.912]\nclass = duplicate", fillcolor="#4ca6e7"] ;
309 -> 310 ;
311 [label="person_700_delta <= 0.86\ngini = 0.152\nsamples = 0.1%\nvalue = [0.083, 0.917]\nclass = duplicate", fillcolor="#4ba6e7"] ;
310 -> 311 ;
312 [label="person_245c_delta <= 0.856\ngini = 0.1\nsamples = 0.1%\nvalue = [0.053, 0.947]\nclass = duplicate", fillcolor="#44a2e6"] ;
311 -> 312 ;
313 [label="person_700_delta <= 0.612\ngini = 0.034\nsamples = 0.1%\nvalue = [0.017, 0.983]\nclass = duplicate", fillcolor="#3c9fe5"] ;
312 -> 313 ;
314 [label="gini = 0.0\nsamples = 0.1%\nvalue = [0.0, 1.0]\nclass = duplicate", fillcolor="#399de5"] ;
313 -> 314 ;
315 [label="part_delta <= 0.926\ngini = 0.128\nsamples = 0.0%\nvalue = [0.069, 0.931]\nclass = duplicate", fillcolor="#48a4e7"] ;
313 -> 315 ;
316 [label="person_700_delta <= 0.621\ngini = 0.069\nsamples = 0.0%\nvalue = [0.036, 0.964]\nclass = duplicate", fillcolor="#40a1e6"] ;
315 -> 316 ;
317 [label="gini = 0.0\nsamples = 0.0%\nvalue = [1.0, 0.0]\nclass = unique", fillcolor="#e58139"] ;
316 -> 317 ;
318 [label="gini = 0.0\nsamples = 0.0%\nvalue = [0.0, 1.0]\nclass = duplicate", fillcolor="#399de5"] ;
316 -> 318 ;
319 [label="gini = 0.0\nsamples = 0.0%\nvalue = [1.0, 0.0]\nclass = unique", fillcolor="#e58139"] ;
315 -> 319 ;
320 [label="person_245c_delta <= 0.871\ngini = 0.415\nsamples = 0.0%\nvalue = [0.294, 0.706]\nclass = duplicate", fillcolor="#8bc6f0"] ;
312 -> 320 ;
321 [label="part_delta <= 0.727\ngini = 0.5\nsamples = 0.0%\nvalue = [0.5, 0.5]\nclass = unique", fillcolor="#ffffff"] ;
320 -> 321 ;
322 [label="part_delta <= 0.286\ngini = 0.469\nsamples = 0.0%\nvalue = [0.625, 0.375]\nclass = unique", fillcolor="#f5cdb0"] ;
321 -> 322 ;
323 [label="person_700_delta <= -0.075\ngini = 0.48\nsamples = 0.0%\nvalue = [0.4, 0.6]\nclass = duplicate", fillcolor="#bddef6"] ;
322 -> 323 ;
324 [label="gini = 0.0\nsamples = 0.0%\nvalue = [0.0, 1.0]\nclass = duplicate", fillcolor="#399de5"] ;
323 -> 324 ;
325 [label="person_700_delta <= 0.278\ngini = 0.444\nsamples = 0.0%\nvalue = [0.667, 0.333]\nclass = unique", fillcolor="#f2c09c"] ;
323 -> 325 ;
326 [label="gini = 0.0\nsamples = 0.0%\nvalue = [1.0, 0.0]\nclass = unique", fillcolor="#e58139"] ;
325 -> 326 ;
327 [label="gini = 0.0\nsamples = 0.0%\nvalue = [0.0, 1.0]\nclass = duplicate", fillcolor="#399de5"] ;
325 -> 327 ;
328 [label="gini = 0.0\nsamples = 0.0%\nvalue = [1.0, 0.0]\nclass = unique", fillcolor="#e58139"] ;
322 -> 328 ;
329 [label="gini = 0.0\nsamples = 0.0%\nvalue = [0.0, 1.0]\nclass = duplicate", fillcolor="#399de5"] ;
321 -> 329 ;
330 [label="gini = 0.0\nsamples = 0.0%\nvalue = [0.0, 1.0]\nclass = duplicate", fillcolor="#399de5"] ;
320 -> 330 ;
331 [label="person_700_delta <= 0.885\ngini = 0.255\nsamples = 0.0%\nvalue = [0.15, 0.85]\nclass = duplicate", fillcolor="#5caeea"] ;
311 -> 331 ;
332 [label="person_700_delta <= 0.868\ngini = 0.465\nsamples = 0.0%\nvalue = [0.368, 0.632]\nclass = duplicate", fillcolor="#acd6f4"] ;
331 -> 332 ;
333 [label="person_700_delta <= 0.861\ngini = 0.198\nsamples = 0.0%\nvalue = [0.111, 0.889]\nclass = duplicate", fillcolor="#52a9e8"] ;
332 -> 333 ;
334 [label="gini = 0.0\nsamples = 0.0%\nvalue = [1.0, 0.0]\nclass = unique", fillcolor="#e58139"] ;
333 -> 334 ;
335 [label="gini = 0.0\nsamples = 0.0%\nvalue = [0.0, 1.0]\nclass = duplicate", fillcolor="#399de5"] ;
333 -> 335 ;
336 [label="person_700_delta <= 0.879\ngini = 0.48\nsamples = 0.0%\nvalue = [0.6, 0.4]\nclass = unique", fillcolor="#f6d5bd"] ;
332 -> 336 ;
337 [label="gini = 0.0\nsamples = 0.0%\nvalue = [1.0, 0.0]\nclass = unique", fillcolor="#e58139"] ;
336 -> 337 ;
338 [label="person_700_delta <= 0.883\ngini = 0.444\nsamples = 0.0%\nvalue = [0.333, 0.667]\nclass = duplicate", fillcolor="#9ccef2"] ;
336 -> 338 ;
339 [label="gini = 0.0\nsamples = 0.0%\nvalue = [0.0, 1.0]\nclass = duplicate", fillcolor="#399de5"] ;
338 -> 339 ;
340 [label="gini = 0.0\nsamples = 0.0%\nvalue = [1.0, 0.0]\nclass = unique", fillcolor="#e58139"] ;
338 -> 340 ;
341 [label="ttlfull_245_delta <= 0.977\ngini = 0.093\nsamples = 0.0%\nvalue = [0.049, 0.951]\nclass = duplicate", fillcolor="#43a2e6"] ;
331 -> 341 ;
342 [label="gini = 0.0\nsamples = 0.0%\nvalue = [1.0, 0.0]\nclass = unique", fillcolor="#e58139"] ;
341 -> 342 ;
343 [label="musicid_delta <= 0.475\ngini = 0.049\nsamples = 0.0%\nvalue = [0.025, 0.975]\nclass = duplicate", fillcolor="#3ea0e6"] ;
341 -> 343 ;
344 [label="gini = 0.0\nsamples = 0.0%\nvalue = [0.0, 1.0]\nclass = duplicate", fillcolor="#399de5"] ;
343 -> 344 ;
345 [label="pubinit_delta <= 0.387\ngini = 0.278\nsamples = 0.0%\nvalue = [0.167, 0.833]\nclass = duplicate", fillcolor="#61b1ea"] ;
343 -> 345 ;
346 [label="gini = 0.0\nsamples = 0.0%\nvalue = [0.0, 1.0]\nclass = duplicate", fillcolor="#399de5"] ;
345 -> 346 ;
347 [label="gini = 0.0\nsamples = 0.0%\nvalue = [1.0, 0.0]\nclass = unique", fillcolor="#e58139"] ;
345 -> 347 ;
348 [label="gini = 0.0\nsamples = 0.0%\nvalue = [1.0, 0.0]\nclass = unique", fillcolor="#e58139"] ;
310 -> 348 ;
349 [label="gini = 0.0\nsamples = 0.0%\nvalue = [1.0, 0.0]\nclass = unique", fillcolor="#e58139"] ;
309 -> 349 ;
350 [label="coordinate_E_delta <= 0.45\ngini = 0.02\nsamples = 0.2%\nvalue = [0.01, 0.99]\nclass = duplicate", fillcolor="#3b9ee5"] ;
308 -> 350 ;
351 [label="ttlfull_245_delta <= 0.99\ngini = 0.015\nsamples = 0.2%\nvalue = [0.008, 0.992]\nclass = duplicate", fillcolor="#3b9ee5"] ;
350 -> 351 ;
352 [label="corporate_full_delta <= 0.45\ngini = 0.375\nsamples = 0.0%\nvalue = [0.25, 0.75]\nclass = duplicate", fillcolor="#7bbeee"] ;
351 -> 352 ;
353 [label="gini = 0.0\nsamples = 0.0%\nvalue = [0.0, 1.0]\nclass = duplicate", fillcolor="#399de5"] ;
352 -> 353 ;
354 [label="gini = 0.0\nsamples = 0.0%\nvalue = [1.0, 0.0]\nclass = unique", fillcolor="#e58139"] ;
352 -> 354 ;
355 [label="isbn_delta <= 0.25\ngini = 0.01\nsamples = 0.2%\nvalue = [0.005, 0.995]\nclass = duplicate", fillcolor="#3a9de5"] ;
351 -> 355 ;
356 [label="musicid_delta <= -0.075\ngini = 0.198\nsamples = 0.0%\nvalue = [0.111, 0.889]\nclass = duplicate", fillcolor="#52a9e8"] ;
355 -> 356 ;
357 [label="gini = 0.0\nsamples = 0.0%\nvalue = [0.0, 1.0]\nclass = duplicate", fillcolor="#399de5"] ;
356 -> 357 ;
358 [label="ttlfull_246_delta <= -0.075\ngini = 0.48\nsamples = 0.0%\nvalue = [0.4, 0.6]\nclass = duplicate", fillcolor="#bddef6"] ;
356 -> 358 ;
359 [label="gini = 0.0\nsamples = 0.0%\nvalue = [1.0, 0.0]\nclass = unique", fillcolor="#e58139"] ;
358 -> 359 ;
360 [label="gini = 0.0\nsamples = 0.0%\nvalue = [0.0, 1.0]\nclass = duplicate", fillcolor="#399de5"] ;
358 -> 360 ;
361 [label="gini = 0.0\nsamples = 0.2%\nvalue = [0.0, 1.0]\nclass = duplicate", fillcolor="#399de5"] ;
355 -> 361 ;
362 [label="part_delta <= 0.918\ngini = 0.375\nsamples = 0.0%\nvalue = [0.25, 0.75]\nclass = duplicate", fillcolor="#7bbeee"] ;
350 -> 362 ;
363 [label="gini = 0.0\nsamples = 0.0%\nvalue = [1.0, 0.0]\nclass = unique", fillcolor="#e58139"] ;
362 -> 363 ;
364 [label="gini = 0.0\nsamples = 0.0%\nvalue = [0.0, 1.0]\nclass = duplicate", fillcolor="#399de5"] ;
362 -> 364 ;
}